solver_type L2R_LR
nr_class 2
label 1 0
nr_feature 11392
bias -1
w
0 
0.01650147572195792 
0.03078316966468061 
-0.1955938617212997 
-0.07412712985365467 
-0.004677230593743821 
0.008353094761032956 
-0.005369573994077849 
0.012865841076764 
-0.004341293764309323 
-0.05025328074524859 
0.004441131044741035 
0.03153608249485804 
0.06185140898183468 
0.02428835540058666 
0.00607080942227277 
0.01161510278039238 
0.02272794255358952 
0.02499557895589168 
0.0398433257648549 
0.01758677659812033 
-0.01617062024612367 
0.03816527556676096 
0.0253096803685188 
0.01905179652300971 
0.008275737843822163 
0.03307810894138634 
0.02222049593410982 
0.0325200870591536 
0.006810041562974678 
0.003965160208838354 
0.01834305308044621 
0.01517699109414291 
0.008015799425399078 
-7.046354123697342e-05 
-0.002467101123384361 
0.01953628703331288 
0.006109471293076987 
0.01024031880744456 
0.006510724064347946 
0.01573465083398906 
-0.001905889309262234 
-0.0185044585926307 
0.01400300378555162 
0.1459970933277081 
-0.01832695875655703 
-0.04385202082846537 
0.03467525255524865 
0.02446298104787886 
-0.004991245464783302 
0.01087297946783825 
-0.04451294743759729 
-0.05577821365569643 
0.01471475214497287 
0.05105110434398079 
-0.01502751019957104 
-0.004850982751520677 
-0.01442840665425902 
-0.02484030854240444 
-0.006529597837468423 
0.03912371057092735 
0.004631007339469633 
-0.003114229757765068 
0.02044188529940298 
0.01648077960633078 
-0.01230213000436047 
0.03724360158953627 
-0.0191271128385543 
-0.06696368204392077 
-0.07351379361932056 
-0.00917141420651396 
-0.008105133628080536 
0.04663848476163407 
0.04342170318621452 
-0.025931273837802 
-0.03321171649224661 
-0.008739634392793291 
-0.02499834038789813 
0.02494994044857097 
0.01095733465355112 
-0.02124227247881195 
0.03114304703287536 
-0.08496941121117595 
-0.004793518791327865 
-0.0420532824052295 
0.01447734291627044 
-0.04162394133325246 
0.000888966434798664 
0.00319370075570953 
0.01704150127739918 
-0.08446844773594708 
0.04731962087877606 
-0.003842024774089768 
0.05271298138906855 
-0.08364456455200477 
-0.02577504848837993 
-0.03562416354975836 
-0.08820383488222429 
-0.02242441943261566 
0.009366104914503723 
-0.003726275405729098 
0.02948652963218834 
0.1030947398996893 
0.007811921721162966 
-0.02461478573511318 
0.06605091599585242 
0.01140666874349477 
-0.1010894699403332 
-0.08361510062466176 
0.02260151728826688 
0.1379998343044962 
0.03135337964734072 
-0.04869748363258911 
-0.05510850482973498 
-0.04721110370933859 
-0.01098658430676338 
0.02261445561116461 
-0.1074202028355967 
-0.06899388440607349 
0.05054188987538658 
0.1127560456369014 
0.01285856257598971 
0.01283629748823093 
-0.0538526177562625 
0.0511943663955769 
-0.03447141543735879 
0.02439046898994489 
0.1117152249239631 
0.02659973015205004 
-0.0634734177745129 
0.08661326022699324 
0.01387207785218461 
0.02135140775644215 
0.1138944888235513 
-0.04871571692320846 
0.04017555447086665 
0.06767033731523281 
0.0158078265323955 
-0.03013261819627416 
0.06192932539857422 
-0.05829427058519106 
0.02284225544837427 
-0.09317348325822079 
0.138260785657971 
0.04157139440617196 
-0.03328262207631042 
0.04520045090524051 
-0.1426261078928882 
-0.0128484919713164 
-0.08260232315476637 
0.01102623780875485 
0.01042261489215581 
0.05613856059845193 
-0.01401894023531179 
-0.1358873537165785 
0.02960421207997219 
-0.1130726674317833 
0.04426831369842819 
-0.07857625402202555 
0.0101026866242277 
0.1029693905764367 
-0.02005133119644533 
-0.03472545082595214 
-0.03036668098960973 
0.08649203749250806 
0.07570898861250402 
0.1547601994864812 
-0.02224524418842035 
-0.06188775178156379 
-0.01858961907698882 
-0.05809707247803669 
0.009059525211619615 
-0.0505793709921611 
-0.01159932250870772 
0.04602574190744012 
0.07927819138618782 
-0.007711892928380206 
-0.04124464065721428 
-0.04663032993342343 
-0.02064412441579484 
-0.02230539423925378 
0.04329036811035863 
-0.08345995696609447 
-0.01979710679314496 
0.007630162167061014 
0.01251184878240631 
0.09132254390396202 
0.02703575914493761 
-0.006004158896458415 
-0.01632797910337647 
-0.04638322824525318 
0.04528303155847374 
-0.03699199243377493 
0.04385187968525446 
-0.002046366064154645 
0.02442945251744799 
-0.03518498526395174 
0.05554059032518892 
-0.02264659555656479 
-0.07866454585740078 
0.007806576938040229 
0 
1.118235252693182 
0.556091933632284 
0.4224938912988354 
0.2924844398293066 
0.1945877537043798 
0.1233633807262888 
-0.01732238206275195 
0.02046642868128018 
-0.2277993895581387 
-0.07961652350381435 
-0.08656682779604526 
-0.2527429282911147 
-0.1590653885816096 
-0.1356329089138025 
-0.1469004762112204 
-0.08623894332584997 
-0.2384168682430817 
0 
-0.05756959130327576 
0.04134832982540916 
-0.2403330000314961 
-0.1255919648022998 
0.02337439267419194 
-0.02219237109953724 
-0.002092993801563903 
-0.1133226448562514 
-0.03996394916801586 
0 
0.00382678303484981 
-0.1415245004992457 
0 
-0.004083147156972243 
-0.06543334128185363 
0 
0 
0 
0 
0 
0 
-0.02706186878888766 
0 
0.08801977799248904 
0 
0 
0 
0.0357753828545295 
0.02409926749584916 
-0.1618823591061573 
0 
-0.05510501679317874 
0 
0 
0 
0 
0 
0 
0 
0 
0 
0 
-0.372605589614264 
0 
0 
0 
0 
-0.003078722764836786 
0 
0 
0 
0 
0 
0 
0 
0 
0 
0 
0 
0.06708725472426515 
0 
0 
0 
0 
0 
0 
0 
0 
0 
0 
0 
0 
0 
0 
0 
0 
0 
0 
0 
0 
0 
0 
0 
0 
0 
0 
0 
0 
0 
0 
0 
0 
0 
0 
0 
0 
0 
0 
0 
0 
0 
0 
0 
0 
0 
0 
0 
0 
0 
0 
0 
0 
0 
0 
0 
0 
0 
0 
0 
0 
0 
0 
0 
0 
0 
0 
0 
0 
0 
0 
0 
0 
0 
0 
0 
0 
0 
0 
0 
0 
0 
0 
0 
0 
0 
0 
0 
0 
0 
0 
0 
0 
0 
0 
0 
0 
0 
0 
0 
0 
0 
0 
0 
0 
0 
0 
0 
0 
0 
0 
0 
0 
0 
0 
0 
0 
0 
0 
0 
0 
0 
0 
0 
0 
0 
0 
0 
0 
0 
0 
0 
0 
0 
0 
0 
0 
0 
0 
0 
0 
0 
0 
0 
0 
0 
0 
0 
0 
0 
0 
0 
0 
0 
0 
0 
0 
0 
0 
0 
0 
0 
0 
0 
0 
0 
0 
0 
0 
0 
0 
0 
0 
0 
0 
0 
0 
0 
0 
0 
0 
0 
0 
0 
0 
0 
0 
0 
0 
0 
0 
0 
0 
0 
0 
0 
0 
0 
0 
0 
0 
0 
0 
0 
0 
0 
0 
0 
0 
0 
0 
0 
0 
0 
0 
0 
0 
0 
0 
0 
0 
0 
0 
0 
0 
0 
0 
0 
0 
0 
0 
-0.02285661358603603 
0 
0.1180286280698533 
0.03108194361570401 
0 
0 
0 
0 
-0.02285661358603603 
0 
-3.236749307447528 
-2.014157741944676 
-1.334273375059005 
-0.8583963493583771 
-0.197882016521694 
-0.1721799813387512 
0.5135638929176718 
0.5599745092652415 
0.4548095465003321 
1.48419070312491 
0.1870252569934612 
0.5651490534955186 
0.4397506650391583 
0.3258562408286707 
0.5283178401061742 
0.3530271680302192 
0.2078563090431263 
0.1962575295318952 
1.418292515466656 
0.7058214993424456 
0 
-0.3553023722153699 
-0.2512716830692855 
-0.1945325407408094 
-0.1054335501460325 
-0.003367425350734513 
0.05303163035956909 
0.11095036118948 
0.1342101295100538 
0.2049817836978906 
0.1846265572944727 
0.2925782112975442 
0.1817214012295308 
0.2840660990596042 
0.2093104158413815 
0.03763055661701713 
-0.2783471384581658 
0.1804505971050694 
-0.09015816659611688 
-0.06528766062486183 
0.05597286347654545 
-0.08410550777206394 
-0.3268048391355105 
0 
-0.02580915087476367 
0 
0 
0 
0 
0 
0 
0 
0 
0 
-0.02285661358603603 
0 
-0.1434810373677033 
-0.1115294500221821 
-0.09139085401775311 
-0.09243711196475367 
-0.1961363310163406 
-0.09854246878821731 
-0.189354798251452 
-0.08847349642936604 
-0.09556162464709839 
-0.1781786528534255 
-0.003132641317075826 
0.004861510370016392 
-0.2153035342404859 
0.06251589283281 
0.002013915043840563 
-0.01915055253331972 
-0.04056666738793582 
0.003954277474300303 
0.02333157053344908 
0.02255370875516751 
0.01198010202139096 
-0.01549504826296614 
0.04809335575619685 
0.02570271573331721 
0.1400081572208548 
-0.03430789521739977 
-0.0269651085924189 
-0.02446022793934669 
0.03604190370156807 
-0.01180362274857446 
0.08470450263355771 
0.07683709952879104 
-0.1941871630909355 
-0.1294978561875444 
-0.01615843398306098 
-0.07877841845205191 
-0.01074204919585939 
0.01588136121918812 
0.02180432800406326 
0.0832483271827735 
0.0819273750808425 
0.1071767105658543 
0.09290350266487005 
0.3221679103412242 
0.06681537077644786 
0.02260992847094605 
0.1149186113889899 
0.05019204642577767 
0.05236806162400545 
-0.239333654045908 
-0.108410452123462 
0.02779539702418308 
-0.0937228848385929 
-0.01461105054589663 
-0.07498831853647253 
0.1273795570854112 
0.1571267022955109 
0.2462566795611569 
0.0261070197926848 
0.009853615901932233 
0.1253877535811618 
0.146043873176031 
0.1300282521725535 
0.1588685916157879 
0.05844804691724723 
0.05976602368706184 
-0.1247053180786681 
0.1190976541041128 
-0.1357232404647193 
0.01367253826156689 
0.1439068471134055 
0.1013274114035953 
-0.006686252940072465 
-0.01900218764200242 
0.04980885254964319 
0.04356413280054908 
0.1066816840014418 
-0.07526824478109682 
-0.02232213880935906 
0.01112974362625083 
0.01601256211062552 
0.1133038758890763 
0 
0.09069982663618853 
0.07432189198134231 
0.002216089951287368 
-0.001364515357376725 
0.1148650981495665 
0 
-0.003105899504835676 
0.04279966168071388 
0 
0 
-0.02178248926635128 
-0.001147415273155441 
0 
-0.002746017067060885 
0 
0.00501377113593459 
-0.2654288516105195 
0 
0 
0 
-0.04222296730519765 
0 
0 
0 
0 
0 
-0.005496345217820596 
0 
0 
0 
-0.001697014061158146 
0 
0 
0 
0 
0 
0 
0 
0 
0 
0 
0 
0 
0 
-0.09439315448316828 
0 
0.04188915708071116 
0 
0.004579183937492532 
0 
0 
-0.001011847477702216 
0 
0 
0 
0 
0 
0 
0 
0 
-0.01179969538483575 
0 
0.001817454995434219 
0.007084826355902736 
0 
0 
0 
0 
0 
0 
0.01429160799718025 
0 
0 
0 
0 
0 
0 
0 
0 
0.02455924560608635 
0 
0 
0 
0 
0 
0 
-0.02395253728250114 
-0.1173546456233012 
0 
0 
0.003391820672200273 
0 
0 
0 
0 
0 
0 
0 
0 
0 
0 
0 
0 
0 
0 
0 
0 
0 
0 
0 
0 
0 
0 
0 
0 
0 
0 
0.0242407122571345 
-0.03033848280829335 
0.004068330835874105 
0 
-0.01010860001997006 
0 
0 
-0.003762758117534674 
0 
0 
0 
0 
0 
0 
0 
0 
0 
0 
0 
0 
0 
0 
0.02243965165560213 
0 
0 
0 
0 
0 
0 
0 
0 
0 
0 
0 
0 
0 
0 
0 
0 
0 
0 
0 
-0.03679185774236363 
0 
0 
0 
0 
0 
0 
0 
0.01321010838234391 
0 
-0.008534894921742392 
0 
0 
0 
0 
0 
0 
0 
0 
0 
-0.005793661653780863 
0 
0 
0 
0 
0 
0 
0 
0 
0 
0 
0 
0 
-0.02639255913497784 
0 
0 
0 
0.000238106821674759 
0 
0 
0 
0 
0 
0 
0 
0 
0 
0 
0 
0 
0 
0 
0 
0 
0 
0 
0 
0 
0 
0 
0 
0 
0 
0 
0 
0 
0 
0 
0 
0 
0 
0 
0 
0 
0 
0 
0 
0 
0 
0 
0 
0 
0 
0 
0 
0 
0 
0 
0 
0 
0 
-0.06027993536690916 
-0.005304989082323786 
0 
0.009010217653411052 
-0.0195004464201756 
-0.004996892918597202 
0 
0 
0 
0 
0 
0 
-0.007573372059796295 
0 
0 
0 
0 
0 
0 
0 
0 
0 
0 
0 
0 
0 
0 
0 
0 
0 
0 
0 
0 
0.04141945382424984 
-0.01577274983182119 
0 
-0.003901345871215211 
0 
0 
0 
0 
0 
0 
0 
0 
0 
0 
0 
0 
0 
0 
0 
0 
0 
0 
0 
0 
0 
0 
0 
0 
0 
0 
0 
0 
0 
0 
0 
0 
0 
0 
0 
0 
0 
0 
0 
0 
0.005071534889317594 
0 
0 
0 
0 
0 
0 
0 
0 
0 
0 
0 
0 
0 
0 
0 
0 
0 
0 
0 
0 
0 
0 
0 
0 
0 
0 
0 
0 
0 
0 
0 
0 
0 
0 
0 
0 
0 
0 
0 
0 
0 
0 
0 
0 
0 
0 
0 
0 
0 
0 
0 
0 
0 
0 
0 
0 
0 
0 
0 
0 
0 
0 
0 
0 
0 
0 
0 
0 
0 
0 
0 
0 
0 
0 
0 
0 
0 
0 
0 
0 
0 
0 
0 
0 
0 
0 
0 
0 
-0.003349947345044764 
-0.04122713665894441 
0.003684790163882012 
0 
-0.01317572749844844 
-0.02973218580884794 
0 
0 
0 
0 
-0.006059862464438846 
0 
0 
0 
0 
0 
0 
0.005793107956045968 
0 
0 
0 
0 
0 
0 
0 
-0.03196461340754284 
0 
0 
-0.004144297397704051 
0 
0 
0 
0 
0 
0 
0 
0 
0 
0 
0 
0 
0 
0 
0 
0 
0 
0 
0 
0 
0 
0.06839613468753232 
0 
0 
0 
0 
0 
0 
0 
0 
0 
0 
0 
0 
0 
0 
0 
0 
0 
0 
0 
0 
0 
0 
0 
0 
0 
0 
0 
0 
0 
0 
0 
0 
0 
0 
0 
0 
0 
0 
0 
0 
0 
0 
0 
0 
0 
0 
0 
0 
0 
0 
-0.02724883128289738 
0 
0 
0 
0 
0 
0 
0 
0 
0 
0 
0 
0 
0 
0 
0 
0 
0 
0 
0 
0 
0 
0 
0 
0 
0 
0 
0 
0 
0 
0 
0 
0 
0 
0 
0 
0 
0 
0 
0 
0 
0 
0 
0 
0 
0 
0 
0 
0 
0 
0 
0 
0 
0 
0 
0 
0 
0 
0 
0 
0 
0 
0 
0 
0 
0 
0 
0 
0 
0 
0 
0 
0 
0 
0 
0 
0 
0 
0 
0 
0 
0 
0 
0 
0 
0 
0 
0 
0 
0 
0 
0 
0 
0 
0 
0 
0 
0 
0 
0 
0 
0 
0 
0 
0 
0 
0 
0 
0 
0 
0 
0 
0 
0 
0 
0 
0 
0 
0 
0 
0 
0 
0 
0 
0 
0 
0 
0 
0 
0 
0 
0 
0 
0 
0 
0 
0 
0 
0 
0 
0 
0 
0 
0 
0 
0 
0 
0 
0 
0 
0 
0 
0 
0 
0 
0 
0 
0 
0 
0 
0 
0 
0 
0 
0 
0 
0 
0 
0 
0 
0 
0 
0 
0 
0 
0 
0 
0 
0 
0 
0 
0 
0 
0 
0 
0 
0 
0 
0 
0 
0 
0 
0 
0 
0 
0 
0 
0 
0 
0 
0 
0 
0 
0 
0 
0 
0 
0 
0 
0 
0 
0 
0 
0 
0 
0 
0 
0 
0 
0 
0 
0 
0 
0 
0 
0 
0 
0 
0 
0 
0 
0 
0 
0 
0 
0 
0 
0 
0 
0 
0 
0 
0 
0 
0 
0 
0 
0 
0 
0 
0 
0 
0 
0 
0 
0 
0 
0 
0 
0 
0 
0 
0 
0 
0 
0 
0 
0 
0 
0 
0 
0 
0 
0 
0 
0 
0 
0 
0 
0 
0 
0 
0 
0 
0 
0 
0 
0 
0 
0 
0 
0 
0 
0 
0 
0 
0 
0 
0 
0 
0 
0 
0 
0 
0 
0 
0 
0 
0 
0 
0 
0 
0 
0 
0 
0 
0 
0 
0 
0 
0 
0 
0 
0 
0 
0 
0 
0 
0 
0 
0 
0 
0 
0 
0 
0 
0 
0 
0 
0 
0 
0 
0 
0 
0 
0 
0 
0 
0 
0 
0 
0 
0 
0 
0 
0 
0 
0 
0 
0 
0 
0 
0 
0 
0 
0 
0 
0 
0 
0 
0 
0 
0 
0 
0 
0 
0 
0 
0 
0 
0 
0 
0 
0 
0 
0 
0 
0 
0 
0 
0 
0 
0 
0 
0 
0 
0 
0 
0 
0 
-0.05515955718542306 
0 
0.008564587278003305 
0 
0.1239110984203606 
0 
-0.04681843686267471 
-0.03604608805217104 
0.08541060228302531 
-0.04735179428235575 
-0.1128655044605058 
-0.003346288520593996 
0.1017125392313625 
0.02511469802237037 
0.001594559359222047 
0.04616908746706072 
0.09449845570653009 
0.05435978307794086 
0.08827140032171943 
0.04118982331644987 
-0.07550066975884649 
-0.07543690109555519 
-0.1471769932895164 
0 
0.1151953066845305 
0.118099364303294 
0.0797548376613757 
0.01254117372111083 
0.02246826192856965 
-0.09334987665207238 
0.05908067627785615 
-0.1005801760634042 
-0.1049151000731887 
-0.04835113459796662 
0.1218757450573317 
-0.05556512024937334 
0 
-0.7061942303653171 
-0.5367732802494846 
-0.5877445634084439 
-0.4367272919018634 
-0.4793600500536438 
-0.4262039911194912 
-0.3549391517341913 
-0.3029907007261785 
-0.2461988747716851 
-0.2346327722079996 
-0.1251178656395361 
-0.1399248015992984 
-0.01885010922276151 
-0.05110737582883245 
-0.0621854163228202 
0.01787191900126545 
0.04640889017700899 
0.07943635415528526 
0.04228097867667007 
0.1485576008449159 
0.1653500796116065 
0.109693312830337 
0.0659914943847178 
0.1495615825817297 
0.1808494920322182 
0.06462678142446565 
0.2239278317224531 
0.287722449662303 
0.2814348261704477 
0.1474441191352968 
0.2151066932905 
0.4451741352289748 
0.2726958621236817 
0.3164404619564046 
0.4548634768011687 
0.1779015659653148 
0.181527130550328 
0.2036408614606754 
0.07806002429814712 
0.2061075523075463 
-0.1059352627893408 
0.04567908700560597 
-0.4641898947833028 
0.1503875596975897 
0.156448122690068 
0.07642833966239196 
0 
0.06816674570675643 
0.03459851904502684 
0.007406946903641969 
0.002353294031689377 
0 
-0.03083920923492834 
-0.006108797283458312 
-0.02584788448394297 
0.1160788595784993 
0.09945269445257804 
0 
0 
0 
0 
-0.1094023451869047 
0.04158712197317962 
0 
0.06960779465017795 
0.05715731835398973 
0 
0 
-0.0008512573929399425 
0 
0 
0 
-0.006059571389605722 
0 
0 
0 
-0.07640851148686753 
-0.01002885401726485 
0 
0 
0.03917671137367533 
0 
0 
0 
0 
0 
0 
-0.01593178795666719 
0 
0 
0 
0 
0 
0 
0 
0 
0 
0 
0 
0 
0 
0.0357753828545295 
-0.04578912145054057 
0 
0 
0 
0 
0 
0 
0 
0 
0 
0 
0 
0 
0 
0 
0 
0 
0 
-0.02398655854719568 
0 
0 
0 
0 
0 
-0.01505541570267337 
0 
0 
0 
0 
0 
0 
0 
0 
0 
0 
0 
0 
0 
0 
0 
0 
0 
0 
0 
0 
0 
0 
0 
0 
0 
0 
0 
0 
0 
0 
0 
0 
0 
0 
0 
0 
0 
0 
0 
0 
0 
0 
0 
0 
0 
0 
0 
0 
0 
0 
0 
0 
0 
0 
0 
0 
0 
0 
0 
0 
0 
0 
0 
0 
0.08801977799248904 
0 
0 
0 
0 
0 
0 
0 
0 
-0.02285661358603603 
0 
0 
0 
0 
0 
0 
0 
0 
0 
0 
0 
0 
0 
0 
0 
0 
0 
0 
0 
0 
0 
0 
0 
0 
0 
0 
0 
0 
0 
0 
0 
0 
0 
0 
0 
0 
0 
0 
0 
0 
0 
0 
0 
0 
0 
0 
0 
0 
0 
0 
0 
0 
0 
0 
0 
0 
0 
0 
0 
0 
0 
0 
0 
0 
0 
0 
0 
0 
0 
0 
0 
0 
0 
0 
0 
0 
0 
0 
0 
0 
0 
0 
0 
0 
0 
0 
0 
0 
0 
0 
0 
0 
0 
0 
0 
0 
0 
0 
0 
0 
0 
0 
0 
0 
0 
0 
0 
0 
0 
0 
0 
0 
0 
0 
0 
0 
0 
0 
0 
0 
0 
0 
0 
0 
0 
0 
0 
0 
0 
0 
0 
0 
0 
0 
0 
0 
0 
0 
0 
0 
0 
0 
0 
0 
0 
0 
0 
0 
0 
0 
0 
0 
0 
0 
0 
0 
0 
0 
0 
0 
0 
0 
0 
0 
0 
0 
0 
0 
0 
0 
0 
0 
0 
0.1434957662111326 
0 
-0.2319362558206092 
0.1288113161576807 
0.02071996715185619 
0.08801977799248904 
-0.02285661358603603 
0 
0 
0.1434957662111326 
0 
0.5812707898260294 
-0.07522398764225424 
-0.04299353419018888 
-0.267972550018475 
-0.03260161412396628 
0.002314639916112526 
0.01929653472488838 
-0.01597253812067883 
0.004516617664685336 
-0.01811519917574891 
0.002051687384023465 
0 
0.002361205048788525 
-0.01566327554226986 
0 
0 
0 
0 
-0.01701481764636621 
0.1262539580963811 
0.003160774254921702 
0.02465962920494461 
0.03418696208323748 
0.05192366610880597 
0.01232292644109642 
0.001829243449392016 
0.09834965939256445 
0.0307803800672375 
-0.004705324878293524 
-0.1460174770415202 
-0.01243917209356907 
0 
0 
0 
0 
0 
0.2847106072235078 
0.08155057942388497 
0.01105231314219084 
0.03365106556822414 
0.08015023204460474 
0.04610372597694827 
-0.07908057667967443 
-0.08197095866697418 
-0.03751426053685114 
-0.05761404550257365 
-0.08557762728239571 
0.01838742118156867 
0.01426535866193737 
-0.0459232905868884 
-0.01775840971396405 
0.1547732726800229 
0 
0 
0 
-0.1074658811691372 
-0.04655304408976247 
0.006799045542870884 
-0.04465326520670375 
-0.0008462966729850105 
-0.01164432582576634 
-0.04944053215902485 
0.0825807485652551 
0.03171096918786957 
-0.02224774867958891 
0.02258399857274744 
-0.08033116003176063 
0 
0.07430780106258592 
0.04168494673161943 
-0.01375831335315487 
0.05304005045606484 
0.1179464698528657 
0.02606936539816759 
0.007901119876284548 
0.07937906603580236 
-0.05754249672663472 
0 
0.1429369219386989 
0.09180963524795582 
0.03890179947552899 
-0.02500900036053029 
0.02646652314330397 
-0.03055195705700239 
0.0481015405604644 
-0.005610319490234444 
-0.09157022350565905 
-0.02645936069861268 
-0.05303110456010154 
-0.06213039211660822 
-0.1088896299331081 
0.01341100286692926 
-0.1291509448170998 
-0.09236674705180158 
0.03074915480974303 
-0.05679572445906231 
-0.08459714846054961 
0.1139702495405539 
0.03924048944758432 
0.1095278193642099 
0.02869644749864575 
0.001935510741506828 
0.06896533530187354 
0.021921564766202 
-0.04170756121374537 
0.05259305183476774 
0.04847969885118941 
-0.0242507133412064 
0 
0.04836619988039394 
0.03003620546449029 
0.05244019076744343 
-0.01580057421868224 
0.08086999663814982 
0.05411273320842375 
-0.01204330501031871 
-0.03097256581795845 
0.09224536486234282 
-0.0003994292447085088 
0.004727072431698507 
0 
0 
0.01245265226507072 
0 
-0.01471079645724368 
0 
0 
-0.02221752824897643 
0 
0 
0 
0.001637756481426395 
0 
0 
0.002735466829366844 
0 
0 
0 
0 
0 
0.000669118536198543 
0.006384855438725764 
0 
0 
0.005777952419220654 
0.005338445496515031 
0 
0 
0 
0 
0 
0 
0 
0 
0 
0.01376478527710979 
0.1079504753109885 
0.01830348279445206 
0.06604543018526955 
0.06020852791055036 
0.03172552722796976 
0.09452843087055017 
0.06596034352480085 
0.06029361457740916 
0.08289458948812714 
0.04335936860834591 
0.05667255974079426 
0.06958139837306812 
-0.009281827992411165 
0.135535786097715 
0.08338856216488208 
0.04286539589413674 
0.08983259762097064 
0.03642136049984084 
0.03468946998862125 
0.09156448809087669 
0.05723981582446838 
0.06901414229917353 
0.05913242390130055 
0.06712153422223252 
0.03472136779332333 
0.09153259026947233 
0.1039082731332127 
0.02234568496627647 
0.07860624951940687 
0.04764770858474612 
0.1204327051490582 
0.00582125294962846 
0.1262539580963811 
-0.04181859145011557 
0.1680725495277741 
0.162646692452119 
-0.03639273435002111 
0.02041374559547271 
0.1058402124549503 
0.06088694998791342 
0.06536700812797616 
0.1344923115369419 
-0.008238353419495852 
0.01176859342116906 
0.1144853645848315 
0.08293339020889608 
0.0433205678951601 
0.1262048757458422 
4.908234980889256e-05 
0.06688343388982322 
0.05937052410573766 
0.0469417915018656 
0.079312166600101 
0.04464066567085153 
0.08161329243052351 
0.06246502804434033 
0.06378893004649462 
0.04413616314678134 
0.08211779495944251 
-0.0003461367910496341 
0.1266000949121289 
0.05634263452007084 
0.06991132358790257 
0.03112884345808947 
0.09512511462913335 
0.04789310071974798 
0.07836085741005383 
0.005370801624480463 
0.1208831564943799 
0.06083009040397721 
0.06542386763538599 
0.08762398047826848 
0.03862997761806566 
-0.02705263116416871 
0.1533065892795479 
0.06104957304831299 
0.0652043850393328 
0.02163565630549383 
0.1046183017896047 
0.004358396316591118 
0.1218955617520807 
0.006355596458067971 
0.1198983616077171 
-0.004490298082177738 
0.1307442561794982 
0.1076320483675429 
0.01862190970339989 
0.00159730908257704 
0.5752890030836213 
0.09488843359230277 
-0.003689515760738856 
-0.01571236000979288 
0 
0.03045557574062862 
0.08244441764599239 
0.1331991400033913 
0.005787262335381908 
-0.03582120358112135 
0.08420504197141521 
0.008626959236733527 
-0.09866018669710672 
0.002959633065157325 
0.007367634947638782 
0.1826779952443907 
0.07751080658225404 
-0.04452427693241798 
-0.2564999384949448 
-0.3028848158271435 
0.009138591723382538 
0.001239423682406304 
0.01561562910815384 
-0.1141625063087012 
-0.1586378292598066 
-0.1101125012776255 
0.0130309575324825 
0.01875535231426908 
0 
-0.3083942781061394 
0.06605154167806904 
0.1950567216484721 
0.001335729374063312 
0.03387491334618622 
0.3830758638655016 
0.1014823675195726 
0 
-0.008570874125282308 
-0.2160818388946256 
-0.2397341033972094 
0.01453737965942148 
0.06286741683184313 
-0.009690882408798066 
-0.04126938646443584 
0.01971372665712613 
0.1153058159269039 
0 
0 
-0.2592426486922382 
0.03849985147244771 
-0.01061059828302753 
0.05177742724394514 
0.123234849427179 
0 
-0.01080157333240517 
0.09392932725000475 
0.3354507853118334 
-0.194510952511555 
0.0759929225713427 
-0.01434347848621358 
0.06316738110700036 
0.09634836648124492 
0.0912154633837193 
0 
0 
0.005747322878757521 
0.2274354199223025 
0.2855460056069318 
0.01384823169656172 
-0.2655618312401978 
0.1523489456969665 
0.06498965001976757 
-0.1335427103071306 
0 
0.173885762934991 
-0.1381702562237618 
0 
0.03393460041607834 
0.02027899692654497 
0.01384892793806585 
-0.09709907550682152 
-0.4270626682478439 
-0.01873948097707398 
-0.009130902733290185 
-0.04106492266876795 
0 
0.003620505617463603 
-0.008068874794384694 
-0.02079975583882418 
0.1389098545326813 
0.05706752022928373 
0.002833166663508859 
0.002386844527458575 
-0.117857062439443 
0.06328735454736954 
0 
0.124362413677252 
-0.1440542614952819 
0.7781257046803052 
0.02842084057832051 
0.03561883158761917 
0.2709506070226814 
-0.0654119217935053 
0.02116429594289834 
-0.04281105160879994 
0.1009457605433844 
-0.0003315384762630286 
-0.004847690645638119 
-0.008540173278070808 
0 
0.005223677806104261 
-0.4576744180328168 
0.1407740217883751 
-0.003367840704361919 
0 
0 
-0.1901702205794517 
0.07163022563137297 
0 
-0.03956743504069186 
-0.1742264298703491 
0 
-0.02274308201099091 
0 
0.007839666755722431 
0.02233108389384596 
-0.1835861114399966 
0 
0.2864895966453099 
0.1592425766295708 
0.1011606138613313 
-0.3094561263421551 
0.1519473751534923 
-0.4040316192913075 
0.1556344590945828 
-0.08641406855480505 
-0.01735872333957928 
-0.006033776011198888 
-0.2983498735042716 
-0.03767384671204818 
0.007372642198696011 
-0.09236894943690956 
0 
0.03257520310733657 
-0.209832761337922 
0.3813188249630384 
0.5077269006780839 
-0.03520407510383918 
0.09099380768040193 
0.03622380292599095 
0.03612411119154707 
0.02973434999579249 
0 
-0.1918352593184077 
-0.03101272576563339 
0 
0.114367798592688 
0.1013852563941701 
0.169539202973061 
0.07331715768161691 
0.11751267135011 
-0.4651813947432891 
-0.001713425256309373 
-0.2509179924344543 
0 
-0.09637279894719833 
-0.01752675551112435 
-0.01670973151120464 
0.2425687642255437 
0.06920895177444718 
0 
0.008532905633412514 
0.08598119552621039 
-0.01372950007607709 
0 
-0.01597621179725246 
0.002510574257905965 
-0.3365859178555416 
0.09795357866164864 
0.07727999881206499 
0.003254796156611975 
-0.1179165367656793 
-0.5409689926704672 
0.1253043851945223 
-0.001346118310610485 
0.04029137670398006 
-0.3056323079503023 
0 
-0.05314847682409626 
0.04788044217485676 
0.06797778920612724 
0.01703007467716883 
-0.006624668999119634 
0.007461689826046889 
0.02225732436448469 
-0.1713999653362039 
-0.2009494786412542 
-0.004893719825031187 
0.06538547691982362 
0.02232613266842793 
-0.003395555940895025 
0.007932796325397413 
-0.001375068316645791 
0.2525293913094911 
-0.404201212632683 
0 
-0.014432023844326 
0 
0.05967442477297825 
-0.002748482506859377 
0.005592100741627626 
0.02536201493418486 
0.01987700353188906 
-0.193388314745587 
0.001154710408387768 
0.01463674088678735 
0 
0 
-0.009794668673346435 
-0.1712920086107423 
-0.003433866647901704 
0.00847183119502495 
0.1554865291194485 
-0.00166215345030504 
-0.2263129960160128 
0.04391167009350646 
0.4497830415189907 
0 
0 
0 
0.008003605189747848 
0 
0.005318922265155607 
0.03979742971186763 
0.03414761290792407 
0.05887883931587229 
0 
0.06054897632509575 
0 
0.01443795216835738 
0.1670906376731746 
-0.2024350168704381 
0 
-0.0119155867590556 
0 
0.08429714801821797 
0.07696326223258775 
0.002834561119579517 
-0.04488808673870268 
0.04181439181729865 
0.3239792877903722 
0.05755630276134407 
-0.005423996037557086 
0 
0.09964575585724583 
0.3339106290320122 
0.05671646533006486 
0 
0.1459437176726487 
0.05161013315321651 
-0.3089618991682525 
-0.265968393064103 
0 
0.315594638229988 
-0.105383074313668 
0.01285345264963528 
-0.04628611455066224 
0.3222951293282106 
0 
0 
-0.02573014037972358 
-0.00694056323951443 
0.01283802050846591 
-0.0820178938835829 
0 
0 
-0.00686238845921721 
0 
-0.01710744703434176 
-0.002501837936164123 
-0.01287425570547412 
0.0683120604665453 
0 
0.02376028656526887 
-0.03386952334815367 
0.01334134352403066 
-0.3514690185255825 
0.01086395420076582 
0.003009115156512017 
-0.0639570150405 
0.2170486636978953 
-0.005398449558338045 
0.2331102929754431 
0.1467732169175938 
0.005025789744827591 
0.09808163492711938 
-0.01164478770744148 
-0.01069229972326274 
0.05132294908645631 
0.01919158894505108 
-0.1694591342701025 
0 
-0.03294423225087842 
0.2221813640641714 
0.007147398740484156 
0.1343753372839558 
0.2031345009838913 
0.1655000892634658 
-0.2184782660107072 
0.08807622683731159 
0.2385552368372023 
0 
-0.01008591759012086 
0.121315462586083 
0.003608165455160688 
0.1241305349024413 
0.1270223571259768 
0.1445255662139895 
0.002395355459631189 
-0.06502871226810859 
0.0135670222084574 
-0.04647024631263405 
-0.004178215564352941 
0.06095627422036597 
0.0083812648496937 
-0.1590288256633089 
-0.02135320663897951 
0 
-0.01994512137452804 
0.114222052086722 
0 
-0.01243687112644168 
0.3070976577057703 
0.07037274643954583 
0.05721220619033691 
-0.002135523935279272 
0.1320802611660925 
-0.05609174362740538 
0.06349063465422711 
0 
-0.001118654610892458 
0.0569747748609898 
-0.004560036021244124 
0.008114344914394105 
0.07259404988191369 
0 
0.01454355644265638 
-0.1556587029977801 
-0.09387500564062333 
0.06762234928453467 
-0.06214663668548701 
0 
-0.005331772709280883 
-0.1075276397564542 
0.04781012491741665 
-0.04024251877526262 
0.006101094150106526 
-0.03451719394931028 
-0.09419715857944977 
0.00280994672930118 
0.06210581877276886 
0 
0 
-0.06445543619347512 
0.09790444786184524 
0.03565556415146972 
0 
-0.2200886257256401 
-0.1320797413817501 
-0.09482057383131978 
0.3702853700334424 
-0.007624872185325201 
0 
0.005152592763261391 
0.4405159343857957 
-0.05482295344621735 
-0.1560161386211656 
-0.00795114633384611 
-0.02071720466633981 
0.07620181803706678 
-0.004789982575392468 
-0.2262743569285343 
-0.2550971587129128 
-0.02376106176614895 
0.02053721453725477 
0 
0.02310789502507723 
0 
0 
-0.1874276871185043 
-0.420748221784514 
-0.008115553197262062 
0.0161145553205212 
0.1632361679570392 
0.01846184363239182 
0.1320017192164336 
-0.002646244202705842 
0.6693646785686841 
0 
0.0009463841277000226 
0.1480847429509317 
0.1099788012225108 
0.02149271618574791 
0.005610950884471079 
0.6813922895161629 
0.08999953268653513 
-0.02815803862093492 
0.0003029176565296282 
0.02502971099301122 
0.006894500025197363 
0 
0.0341656698056468 
0 
-0.009694455492373806 
0.04187437251074603 
0.20931954019321 
0.132980638004949 
0.05611904483920444 
0 
-0.1795314644230964 
-0.0129042109194244 
-0.1490420867233023 
0.009379419937289652 
0 
-0.02654026347313506 
-0.3432605676948053 
0 
0.001639398028364231 
-0.1209758750169085 
0.01746811186348098 
-0.3026338324482856 
0.02428123844639423 
-0.1918569039362556 
0 
-0.1278411239332825 
0 
-0.09857912427449687 
0.005492705606898492 
0 
-0.1827248215995102 
-0.008604150506598476 
0.01428650456647966 
-0.157231038781232 
0.003705201602272546 
0.03717246345762985 
0.1047288342196134 
0.01111439502920682 
0.07510874037082241 
-0.03107592326652533 
0 
0 
0.121960954396986 
0.008771606081623414 
-0.04638923149400424 
0.01562990870907435 
-0.1051185130097632 
0.4159307774708784 
0 
0.1412135229171915 
0.2052553359023701 
0 
0.005583325266366223 
-0.006828429104480126 
-0.0202721997538156 
-0.04259014321905311 
0.004376175027428105 
-0.04764488129098318 
0.1581022546412842 
0 
-0.01236703684415233 
-0.002864255104774856 
0 
0 
-0.1324772545989794 
-0.0158517690267307 
0.009154470021517832 
0 
0.0071256429606134 
-0.207259339170855 
-0.01077638448406879 
-0.651371040644976 
0.0314177144222224 
0 
0 
0.01820369592070155 
-0.01039098148789799 
0.0655192733374841 
0.02119615778036144 
0.0754135407146197 
0.02959920446257316 
-0.004811374082641408 
0 
0.01406620569005182 
-0.2478148885316173 
-0.03089596850429942 
-0.006984839083774527 
0 
-0.01181123000718767 
0 
0.06208119428112679 
-0.2026805167992283 
-0.008276321966460477 
-0.3307749814585293 
-0.1773601847140912 
-0.008937489145988532 
0 
0.3365549935558969 
-0.005264459350102909 
0.03878953239203209 
0.1162918146362656 
0.05670640038427652 
-0.09689896130277909 
0.01824139761104266 
0.03592868829109034 
-0.02534700937406942 
0.04141214281533252 
0.04499589967256917 
0.0155942156645981 
-0.3818777154523141 
-0.05830205816693614 
0 
-0.1295661063161665 
-0.003853845748174229 
-0.03657272900476364 
0.13980188314486 
0.01340116739412662 
0 
0.001295003738471608 
0.2871473370361341 
0.2459931555219224 
-0.09620893845718521 
0.07329860825524784 
-0.008492374255806802 
0 
-0.0893627504826575 
-0.1723766469478044 
0.0009363933254056878 
-0.00770116982258412 
0.0245130292554591 
0 
0.0323060428396092 
0 
-9.070310264983671e-05 
0 
0.05804731628557674 
-0.238303122593097 
0.09926308991547744 
0.01349179464213955 
0.009167714030627683 
0.01491719200398567 
0.06085421954714606 
0.06190469200984498 
0 
-0.2805942733404258 
0 
-0.06256848606570783 
0.014598261240033 
-0.005204881608456641 
-0.2311608072950635 
-0.256294423518688 
-0.2225812375400158 
0.00102936618480892 
0 
0.03657254272946007 
-0.03877611412482794 
0.2114913480056236 
0.06556134121544446 
-0.03318861869873091 
-0.1282605694193814 
0.3783739744901822 
0.004048975400774637 
0.05699066659722064 
-0.3119093154257024 
-0.2210073999515418 
0.05410860040189217 
0 
-0.005721412332548187 
0.01645282085483004 
0.1493327015611264 
0.193238068377306 
0.02706245508415936 
-0.09855044503700033 
0.008583774511179858 
0 
0.526601068951265 
-0.008287511694867222 
0.1298748883417491 
0 
-0.02543099205683974 
0.02819328980075648 
0.04927637550173486 
0 
0.01234662365300146 
-0.09246341570465394 
-0.1411625970674699 
0 
-0.0273873132585063 
-0.0009672135789670646 
0.008265726799870182 
-0.2283088826775843 
0.1047263003579315 
0.007947404409942623 
0.2181999992422861 
-0.1952386336368628 
0.01483090676948534 
-0.02197859498657349 
0.002594520553231052 
-0.04950196236334043 
0.04075108457103326 
-0.01294485059726439 
0.03733466372484877 
0 
0.1184289328799261 
-0.07968791884947517 
0.03272226120750509 
-0.05214438063495505 
0 
0.03513658489384279 
0 
-0.004035692120947547 
-0.007703214771634465 
-0.02061910938839986 
0.122472949256064 
-0.02186638557954488 
0 
0.1783962976235007 
0 
0 
-0.1542890518849157 
-0.05050375067697386 
-0.1498128005665198 
0 
-0.03248016703801731 
0.004772777106293728 
0 
0.01572801136606836 
-0.1373199167822021 
-0.06712435837627553 
0.06375319939383163 
0.0116050669540356 
-0.07902842184434165 
0.09815590506341113 
0.1792706467900298 
0.01119962053544474 
-0.0997771348740903 
-0.01795122808782559 
0.02766259317015018 
0.04700526231828136 
0.2251308471888451 
0 
0.00716916080187156 
-0.01227690223556943 
0.7042689040205312 
0 
0.008049617569962921 
-0.0143354341071344 
0 
0.02926189820202635 
0 
-0.005326130893016456 
0.01893736994270251 
0.06903286411461244 
-0.2686501073593177 
0.02115479230430467 
-0.1800209560821533 
-0.04692774234698248 
0 
0.02877154045511666 
-0.1371918605193286 
-0.2292100284143195 
0.0286009031786946 
0 
0 
0.001893362594444561 
0.001857305252594226 
-0.08666189153784186 
-0.03026547869240517 
-0.06498914314541383 
0.1319129687857644 
0.02191895224394938 
0.02733713037733596 
0.01142642593456683 
0.2262103892139186 
0.01940371234866434 
0.2110013987272036 
0.09749917401100688 
0.006810573755562667 
-0.2701916724709701 
0.03722447216741346 
0.05301987059961081 
-0.04736426301054283 
-0.2333785123830567 
0.01373071859980725 
-0.03048499310302505 
0.09910412336752865 
-0.00561663470293709 
0 
0.00848075269522745 
0.1098695637701592 
0.4772396710545962 
0 
0.009351274008086066 
-0.09673346041869722 
0.09746260053596936 
0.1100816095189595 
-0.7661881333051859 
-0.00372222421027648 
0.02817664261180345 
0.002822181404168451 
0 
-0.1010553544662006 
-0.07270063838684487 
-0.003420342388274835 
0 
-0.02699448656140428 
0.2015835004111115 
0.08173776371666031 
0.005104354489138539 
0.02001887174098093 
-0.0105701448157765 
0 
0.5761015776263683 
0 
0 
0.1132541805946398 
-0.006767375516972813 
-0.00900846950346126 
0.03788116937345619 
0 
0.06847995192479676 
0.03274770640435202 
-0.07308910016280973 
-0.05537316246421962 
0.1319437023222385 
0.0566984945091851 
0.02026755146607606 
0 
0 
0.01701612895431599 
0 
-0.02056077028925445 
0.07948935058717035 
-0.4465188088881618 
-0.01584977965210772 
0.009470582531848988 
0 
-0.2638507717095421 
0.008518978102314549 
0.002009556739649042 
-0.02765189270142932 
-0.1050649501540338 
0.0005213794495262766 
0.07807617262678743 
-0.006107665598215384 
0 
-0.002572823783906619 
0 
-0.2312592545094328 
0.02184807851923133 
0.02685105294593114 
0.02772037258153232 
-0.007080784139323585 
0.07194445622104792 
0.03069672315073947 
0.3576655350755933 
0.4322426212586223 
-0.3021296189419852 
0.03215163320414016 
-0.01108180523426917 
0.2386001186663926 
1.534112001492838 
-0.06020881901249571 
0 
0.1326968978906466 
0.02180203922354757 
-0.04027902250033694 
0 
-0.002676586367339993 
-0.0149127837877673 
0.03001395405571258 
-0.002302360792648752 
-0.1448756943081132 
-0.008894569618756721 
0 
-0.02967045320037601 
0.02579626944432716 
0 
-0.003769123854161615 
-0.023946482954659 
0.01579076799918339 
0 
0 
-0.02291865562433147 
0.001814252327411501 
-0.00879541635825571 
-0.3488636842110395 
-0.005204283222321681 
0 
-0.02633773954138999 
-0.04758004148807585 
0 
0.002539981557596077 
0.01721109130747062 
-0.002780901790534036 
-0.3348695414494585 
-0.01442298932160515 
-0.0106487742907106 
0.004622767969979044 
0 
3.498422499997873e-05 
0 
0 
0 
0 
0.05184958759175871 
-0.01130595934890451 
-0.0318841753299872 
0 
-0.001411542648402582 
0.005373925417995895 
0.1614737404799023 
0 
-0.04870742668367258 
0 
0.03357406631229133 
-0.197494496228428 
-0.07099291937584001 
-0.2826811109837592 
-0.02910588539907642 
0.03740219826859997 
0.08049110953217459 
0.003627875212774369 
0.01713686613074615 
0.01956040541292268 
0.01552746376077732 
0.07932286184481756 
-0.005212443018023627 
-0.01402027848452051 
-0.09089408738286124 
-0.01145192162741801 
0 
0.320119344258902 
0 
0.01614558872340163 
-0.08510351530370812 
0 
-0.000286694424639595 
0 
-0.1694934469158668 
-0.3162152535749009 
0.02043084017286755 
-0.0004046141432368138 
0.02221289175560731 
0.006255626193049541 
0 
-0.006295732410568372 
0.0734649283146335 
0.007107329694610695 
0 
0.02098330495507236 
-0.2394751201321672 
-0.1779971872118732 
0.1977724608227881 
0.09587551497079466 
0.1307658590362452 
0 
0 
0.08461076459308972 
0 
-0.007845963668160006 
0.08606738570449922 
0 
0.04245148976861153 
-0.406040758714494 
0.001529164459994878 
0.001134664930525713 
0.008259890150157526 
0.084535388263063 
0 
-0.01015626387175676 
-0.1360149504749061 
0.1443121894236237 
0.1537906716520248 
-0.05592374611425335 
-0.0008490666808011017 
-0.1858241472977299 
0 
0 
0 
0.01494729769199028 
0.09907332519263054 
0.05726449520871123 
-0.04429971989039817 
0.08968889819240528 
0.1076965560009249 
-0.0057893620968 
0.01814833323115215 
0.05787543588927685 
0 
0 
0.02730668638644577 
0 
0 
0.06941740913074729 
0 
-0.04765039243064571 
0.09822528428546906 
0 
0.2811452642054143 
-0.008474631151090857 
-0.02828614445464165 
0.02103913788601074 
0.05768068251471536 
-0.0004918380678206874 
-0.006534667301292313 
0.02358993663416366 
-0.01661744236109013 
0.3445640336572723 
-0.006273159095541061 
0 
0.05645083458553861 
-0.2398096855252805 
0.009609416177076955 
0.02233766740681771 
0 
0 
0.008030724536401182 
0.001089517026755848 
0.0001747701708176085 
0.2678719002993647 
0.006612494609619607 
0.1771429261944821 
0 
0 
-0.2533324458971885 
-0.05053871102166547 
0 
0.01738458203658069 
-0.02684590174256135 
0.00420183567909981 
0.01247942566409862 
0.01533486767096029 
0 
0.02323779555695009 
0.1993729638777077 
-0.1751253082555005 
-0.04690534078377542 
-0.01829912167622982 
0.3885869460471729 
0.005136802542324384 
0.3444735121000746 
0.005976968577908715 
0.09644398429462239 
0.1297448095873626 
-0.00027439283416817 
-0.00281970191460576 
0 
0.4088692601274529 
0.05308235615166804 
0.0007686198677708405 
0 
0.06879232856398265 
-0.05387019965697021 
0.0007398612778198462 
0.01711113574988436 
-0.06469109030117563 
-0.002177123849714946 
-0.09371899039373943 
0 
-0.2519345233233565 
0.07108141344119545 
-0.006439115744134472 
0.03388664925511005 
0 
0.01036739946861783 
-0.2426776642458168 
-0.02216184522873382 
0.0004093402832628496 
0.0236855306789622 
0.02118078299323753 
0.01950973004935906 
0.004289567542832395 
0.1433376747445292 
-0.009295484325494657 
0.0151199360741801 
0 
0.01012274034505709 
-0.005181216525165673 
0.04320422179016822 
0.06596752692513604 
0.002409604105014645 
0.0009106302859571557 
0.009744583288119838 
0.1808971140473881 
0.01211232691384149 
-0.03217554827061669 
-0.02447265077348588 
0 
0.007860392780498411 
0.06736943572614293 
0.04352574680706191 
-0.003454436707513395 
-0.1462585387143196 
0.03589427393166213 
-0.1120021357108995 
-0.2198671815376237 
0.004581326685321166 
-0.0241330643582311 
0.01450986958453711 
0.1035860907277349 
-0.001004665214992658 
0.06874459923186804 
0 
0.01567281187399228 
0.03070341975901296 
0.07369162108710092 
0.1205580230076092 
-0.1124550264965063 
0 
0.04859521077471082 
0.4913139411953969 
0 
0 
-0.009422719248136481 
0.2636453922667493 
0.1919074341511796 
0.07002297292736892 
-0.003027332287417421 
-0.3313724269880254 
-0.03742500171333259 
0 
0.1290616064262805 
0 
0.006540080470817937 
-0.03434339399605859 
0.009533819069884236 
-0.1248526419946934 
0 
-0.1332548849287999 
0.05347428610029407 
0.008455542763941348 
0.9475899457544987 
0.1474979818033797 
-0.1266516554521248 
0 
1.834080060443208e-05 
0.02851208141633121 
0 
-0.05946059682250443 
-0.004608487856035281 
0.0643017065447884 
0 
0.00197098049456233 
-0.1817105414182013 
-0.1037714468529036 
0.03420255124067455 
-0.03149635155226771 
0 
0.01236231418069292 
-0.00616722124537813 
0 
0 
-0.006441042470239564 
0.03293682733702097 
0 
0.1582681809072728 
-0.07708249189424757 
-0.0732039870832332 
-0.03571393685393982 
0.02593711675011717 
-0.06485009594566817 
-0.3901496238367091 
-0.01358272953796059 
0.1836820277438441 
0.09985337165872768 
-0.01867797030393727 
-0.01678608262301422 
0.3528177494335226 
0 
0.1164709861267012 
0.05998450113792566 
0.01151598859424465 
-0.05341092392141029 
-0.00739709784143236 
0.01999677558835933 
-0.07178659526055893 
-0.04038591332814051 
-0.01403022169636118 
0.01532033470184532 
-0.02192756174801568 
0 
0 
0.05314880724923311 
0.02358670201523984 
0 
0 
-0.00945703169185166 
0.1362761335638315 
0.03655433094040171 
0.03216756524664775 
0 
0.05758683360294144 
0.05069377502395018 
0.02659637982653949 
0.04299140785237219 
0.02895452534723424 
-0.6229946594277078 
-0.2620301174806733 
0 
-0.1245865465102276 
0.01537601316927151 
0 
0.01845914867716733 
0.001240140654313641 
0.03498637977053858 
0.000811504016418077 
-0.006165732449154918 
0 
0.02911098159500326 
0.06014546533747324 
0 
-0.004208351497468601 
0 
-0.07177028543974506 
-0.004378783127482289 
0.002942963996518396 
-0.006486471088629224 
0.2037560196517486 
0 
0.1246370875765484 
-0.04048478539050392 
0.02261599200322061 
0.01951179902133748 
0.118007263200925 
0 
-0.4884563524709169 
-0.01960053792509845 
0 
0.0001427892899425863 
0 
0.0009047706426701958 
0.03543800515273125 
-0.03546852412288211 
0.01465846637690297 
0.03648343264263923 
0 
0.02171610074655514 
-0.006369857911308846 
0.02587660306840382 
0.0268467250010094 
0.0001009236212379606 
0.2460907095281651 
0.007051902906918867 
0 
-0.0008249350017762208 
0 
0 
-0.006622749872598178 
-0.005733281034190416 
0.1297051680689615 
0 
-0.01354800093533813 
0.006091069424947412 
0 
0.02007894071531392 
0.1618659200389169 
0.1790665777552798 
-0.04239874659010919 
0 
-0.01950185788084074 
-0.3143305000505563 
0.3127776546238248 
0 
-0.001314786062743705 
-0.01173288657418752 
0.0409464894686293 
-0.02105487697245847 
0 
-0.1509160864055984 
0.05608798935013254 
0.001217632969107875 
0 
-0.03338238523340552 
0.0511665044186868 
-0.1199462378358348 
0 
-0.05204613368697714 
-0.07082345523925934 
0.008994363752637407 
0 
0.06084771398954768 
-0.04427587618817558 
-0.03374565590680677 
0.0061992988954814 
0 
0.1205614718624397 
0.001577916884820643 
-0.0936047001901963 
0.009796167204880281 
0 
0.03194245791337975 
0.0894928775037587 
-0.08368874197147877 
0.007175940489387097 
0 
0 
-0.006329286286106768 
-0.0970806323489054 
-0.04252642272392495 
-0.1355127184999704 
-0.03780973391052716 
0.007292988815008771 
0.09624336123147818 
0 
0 
0 
0.03168060566514166 
0 
0.00273650133993547 
0.02823591566943252 
0.02333411339414162 
0.07892609544922134 
0.06092390182475602 
0 
-0.02514243361019981 
-0.002823316114943075 
0.003660898332286282 
0 
-0.01587204248177626 
0.1538308028447803 
-0.1547526604430107 
0.08277107047119253 
0.338941458017401 
-0.03340668610594338 
0 
0 
-0.02200591268406271 
-0.06245301913626236 
0.00442138563081004 
0 
-0.01633131084699783 
-0.005869315711836735 
0.06921732548928977 
0 
0.0631696464060667 
0.0279696513434526 
0 
-0.09017067661089025 
0.03685192758503147 
0.01062762461111636 
-0.01560230371747447 
0.004400206096503685 
0.07443867765554854 
0.01117709849743563 
-0.3884710259964131 
0 
-0.08770548803696715 
0.07632447502310827 
0.0979000239312047 
0.04453435464270803 
0.01817652901063935 
-0.02570132186372567 
0 
-0.01185885148485567 
0 
0.007405625984153117 
0.1243014533627572 
0 
0 
-0.04814468973265888 
0 
0.07984046792495783 
0.1040981203518038 
0.006954462705900263 
-0.08119474189061573 
0.025385114478508 
0.01173666031621942 
0 
0.1281285537125708 
0.06479619556364284 
0.003403197926093778 
0.005298819250074485 
-0.1389535399183638 
-0.1841813504527637 
0.1381756932219509 
-0.007344876037251835 
0.007762743876085787 
-0.00962657066230482 
0 
-0.03438550359828241 
0.005441990983364415 
0.007284112118969857 
-7.135455797737441e-05 
-0.261170791014379 
0.008843245171921522 
-0.01406398060044525 
0.00210070650113839 
0 
-0.005266363415574945 
0.07211970818355326 
-0.0963475015035459 
0 
-0.02324241530089543 
0 
0.007001511505164425 
0 
0 
-0.02941967762174881 
0.009529131751532959 
0.002014331567772782 
-0.008749317628731136 
-0.02196098052509864 
0.06145217642862519 
0.04743891660010299 
0.002575918363940859 
-0.1153292220341391 
-0.0459107858191471 
-0.1498714465353554 
0.04653065425911623 
-0.007172461222760053 
0 
0.02097191030083541 
0 
0.0009289398198648239 
-0.04088435165069687 
0.02161055885513079 
0 
-0.2181947311933551 
0.02583261451719162 
0 
0.004066107112452301 
0 
0.01297491474350292 
0.07349531303049632 
0.00259580356280165 
0.0307679657864166 
0.01503645344258009 
0 
0.0108460321918228 
0 
0 
0 
0 
-0.05648561763427279 
0.02310371648324125 
0.01098181823166676 
0.01280696311959533 
0 
-0.1270802182862457 
0.128696409548351 
-0.02473103182232246 
0.01480537497552964 
0.007496907155831727 
0 
0.01982922416255547 
0.01044562123887267 
0 
0 
-0.01031464598197762 
0.01693832863286795 
0.1553150967234683 
-0.2175686937845248 
-0.01624206832738927 
-0.007291822031723619 
0.02827191727407295 
-0.139046566980212 
-0.05476747533576704 
0.1039366411950965 
0 
-0.01013532772130704 
0 
0.02199606032389914 
-0.0274484811961255 
-0.05640262786172977 
0 
-0.003991564146124584 
0 
0 
0.04363774735626952 
0.008306784131663972 
-0.1743382438797465 
0.04161710303840453 
0.187293322032978 
0.01865152672621277 
-0.3340865769621142 
-0.019124355770473 
-0.001933045778252866 
-0.01975626047460573 
0 
-0.01858362091012196 
0.1448423721060732 
-0.2482620113285063 
-0.02031049598463501 
0.01175275498784523 
-0.02314732623925291 
0 
0 
0 
-0.06280385411985444 
0.06863104950001772 
0.01832258936970766 
0 
0.01975988157536181 
0.03325525896747555 
0.03662588539599406 
-0.05996299828245132 
0.1987723360909414 
-0.3963494014466406 
0 
0.0221147094655267 
0 
-0.007367416281945685 
0.2825373342923035 
-0.05219613745123916 
-0.0354177768679888 
0.0008723269172341232 
-0.2232708397944847 
-0.02201244547033585 
0 
0.01723231063160052 
0 
0 
-0.002700271861456477 
0 
-0.0181345425101142 
0.02848183361544135 
0 
-0.1391736229607104 
-0.05042825822155075 
0 
0.0872889306148574 
0 
0 
0 
0.0918240075768588 
-0.05596754566840227 
0.009002175395026851 
0.06062083731522284 
-0.02167193678663502 
0.03621514757042184 
0.1042973069217803 
-0.01208243237338994 
0.348035586216394 
-0.01135933519450568 
0 
0.01169466705442149 
0 
0 
-0.1009118965090345 
-0.03431079996725915 
0 
0.001868148222601245 
0.03051513265110756 
0 
0.05644347825093139 
0.03400507504792966 
0.6405642495899754 
0.02364702259895054 
0 
-0.00539305779122026 
0.1354690329719329 
0.02656232057303662 
0 
0.01307165687559715 
0 
-0.07234657063232357 
0 
0 
-0.009292824356016017 
0.00395252430619732 
-0.06216895179775024 
0 
0.133937725548084 
0.01578585564046014 
0 
-0.01078870348333844 
-0.02722694276156235 
0.01129285858441592 
-0.17538446605858 
0.08833963321532159 
0.06049594381849314 
0.007368601408943237 
0.0001085155693607207 
0.03966633650932772 
-0.00176816571302404 
-0.02017461987675127 
0.02572434236413694 
0 
-0.1056213531210374 
0 
0.007418444024403464 
0.006688877375739729 
0.2818072996586208 
-0.008320180782285984 
-0.3408106581064625 
-0.2008807359185852 
0 
0 
0.01363191859282185 
-0.0150483323939513 
-0.02790881689276588 
0 
0.0006940234141075206 
0 
-0.1787701203387835 
0 
0 
-0.02963127602457346 
-0.07097526546743681 
0 
0 
-0.01154520883697621 
0 
-0.003826377455144748 
-0.09839489091423166 
-0.0634636435651835 
0.1304535390912319 
0 
0.01503360597221511 
-0.05689731872369859 
0.448589767114407 
-0.004922877356783098 
0 
0.0129811064897245 
0.005868690162937697 
0.004379092453924843 
0 
0.2269790196105263 
0 
0.03419404799014655 
0.01178549647009244 
-0.009930710060121199 
-0.02603732693465924 
0 
0 
0 
0 
0 
0 
-0.0968452828307646 
0.07633603458266622 
-0.04634411327944025 
0.02111888059845536 
0.08862993111553188 
-0.0233431339139073 
-0.002955762990183282 
0 
0 
0.07684976330768582 
0 
-0.01039160540241579 
-0.2803027478069158 
0 
0 
0.004728511148283512 
-0.08657915643065257 
0.04809834341308709 
0 
0.0621270368799168 
-0.03312308676180378 
0.06288842114814606 
-0.01593358377738117 
0.1093969935080058 
-0.01538531226916564 
-0.01669338439213785 
-0.01867964531803824 
0 
-0.005954544196467343 
0.1001254683139573 
0.01900497734472668 
0.06829446497697411 
0.0008583061924865808 
-0.3341164641974651 
-0.01545856078488014 
-0.009976502369279322 
0 
-0.249614646607281 
0.02948156299403799 
0 
0.2758901898254461 
0 
0.005150749885380565 
-0.1073841031626731 
0.004931215296862856 
-0.01236786633158365 
0 
0.03886455424637478 
0.01285274253574646 
-0.001200310449374118 
-0.02981991541507605 
0 
0 
0.03593322462295074 
0 
0 
-0.00662262002256025 
0.09670112535659039 
-0.04308504916017297 
0.0712972001799415 
0.06953144298709889 
0.03292704495617357 
0.007889979181948092 
-0.07995359400653707 
-0.1442222176184064 
0.09554800026850373 
-0.0487832690412796 
0 
-0.01938111432269877 
0 
0 
0.003027853392206951 
0.5101489812619309 
0 
0 
-0.01153152669403016 
0.06221800170455101 
0 
-0.02442542080581346 
-0.1435835747299437 
0.04581618449043287 
0.04306713038912411 
0.01996882417761847 
0.0002025215806825479 
0.005916880640330718 
0.031870535835928 
0.007619656383394773 
-0.03126160570616988 
-0.1833477537007129 
-0.007099262531662659 
0 
-0.3014392700498152 
0 
0 
0 
-0.02423521579848602 
0.04814608245062688 
0 
0 
-0.009324204572411548 
-0.0484377905000947 
0.0004189584707154579 
0 
-0.02128308813847323 
-0.01059217824832836 
0.0733218185130141 
0.05325311961888154 
0.001714441198301498 
-0.001173047641405267 
-0.006203616982186471 
-0.1670536970328675 
0.1547169947823004 
0.0002353388127318061 
-0.03013689245662572 
0.009229377337968714 
0.05138973364248349 
0 
0.2200108027226126 
-0.04177751868393902 
0 
-0.1557281482878772 
-0.03268093736191999 
-0.0740644277778594 
0 
0.01681407412977697 
0 
-0.1074972531924591 
-0.09792566021781768 
0.007248698358749013 
0 
0 
-0.01208122547549813 
-0.06884703712267279 
0.02541944176064213 
-0.1795223451590618 
0 
-0.005338505759439319 
-0.006481495734800155 
-0.02235443076576362 
-0.006375179697265336 
-0.01252674326932672 
0 
0 
0.06681673910348754 
-0.01997584233012546 
0 
0.01693804508049193 
0.001413905144220743 
-0.02856580836742533 
-0.01333145669165864 
0.0465479386816202 
-0.03244162233436194 
-0.01423273765901549 
0 
0.01334461580438504 
0.04440255608807754 
0.007443059496352449 
0.00712408889221568 
-0.008196529023500414 
0 
0.04431169839198647 
0.04067751615700606 
0.06573081586201975 
0 
0.01226753293916234 
0 
-0.009766456137690574 
0 
-0.003956174096210595 
0.01141503046262631 
-0.2907214206265889 
0 
0 
0.03460150716742914 
0 
0 
0.1090856556551639 
0 
-0.1224274018888458 
0.04100278716883594 
-0.03133167734671206 
0.005695559752181412 
-0.3604043744691734 
0.006065802539160454 
0.1915550390850005 
0.02757302233161531 
0.0007096082215665486 
-0.03089345099782551 
0.06674833098563399 
-0.3182217412631906 
0 
-0.02644102785201739 
-0.02913377034202473 
-0.1763524103775726 
0 
-0.03532379354191561 
0 
0.0947490572663484 
-0.002128970253823008 
-0.3341137332586958 
0 
0 
0 
0.07729537068717227 
-0.006162976495579891 
0.04090649177646641 
0 
-0.007151236547056267 
0 
0.005160561948256971 
0.003791126105382753 
-0.3338431938385707 
0.02579318470580956 
0.03736059558586072 
0.002324152963314965 
0.3214461439295515 
-0.1369653887622944 
-0.03265382598334301 
0.008587544608838645 
0 
0.02231055575903087 
0 
0 
-0.2496214930564921 
0.05279018122980995 
-0.01455040149159116 
0.1930944744562188 
0.03845516892683066 
-0.007124717622410645 
-0.03886511508278048 
0.02178589207831784 
-0.3797814365268637 
0.2829315041921938 
0.01398133681906133 
0.05010877223320209 
-0.1453006022500339 
0 
0 
-0.03211520257093831 
0 
-0.3499364364350658 
0.03001391430469859 
-0.08690393192578311 
-0.2655365291778488 
-0.1820633866101938 
0 
0.01619855106881079 
-0.0317140365963408 
0 
0 
0 
0 
0.006765395899708419 
0 
0 
-0.01672253103422858 
0 
0 
-0.002646052378638934 
0 
0 
0.0273238247543349 
-0.009164271170869782 
-0.1093063201698116 
-0.04500930173630067 
-0.00795772714674774 
0 
-0.03835571398078656 
0 
0 
0.0378725632521873 
-0.02617263272691445 
0.8834545094697621 
-0.1298115942633496 
0.2087370807677267 
0 
-0.04688085093251922 
0 
0.0444380019044259 
0.06599779181642201 
0 
-0.01095586440946455 
0 
0.015852787336324 
0.0121696757616301 
0.003636512891828364 
0 
-0.04134472557805553 
-0.235841384020714 
-0.07472306388581026 
0.007818241873470902 
0.03156588674592485 
-0.01268348665972852 
0 
0 
0.038984987608166 
0.1645865838163401 
-0.0009322386085913361 
0.006071631782703736 
0 
-0.003008592326367534 
-0.0018467001712238 
0.007818333943382116 
-0.03137505094467163 
0.08567694081484191 
-0.06798283519019788 
0.0403070601169588 
-0.01099599888817297 
0.01831368787805663 
0.0111948146260008 
0 
0.002855087056558184 
-0.004789873077342379 
-0.08155088960248316 
0.001281581920271217 
0.05594672823071221 
0.282533100200791 
0.008793886724142415 
0.03309850812908606 
0 
0.06238205057763817 
0 
-0.185580317368658 
0 
-0.036266273390529 
0.04900780313189015 
0.1620850336593831 
0.009895900506719308 
0 
0.03038588862716097 
-0.04056061342424266 
0.01175115960809354 
-0.006606134904085491 
0 
-0.2664873665027525 
0.009131864331898588 
-0.09219603761535472 
-0.01443396943115313 
0.02040055073517054 
0.0247810258581179 
-0.01513814702385523 
0 
0 
0 
0.03066072881562251 
-0.08786659917718204 
0.1111718284824268 
0 
0 
-0.2532718134351331 
-0.274482299067528 
0 
0.08457306904993425 
0.01309282196927967 
0 
0.4036153256100407 
0.003198405062291087 
0 
0 
0.07902055660538135 
0 
0.007480196868797969 
-0.06967993267137476 
0.03712809011748014 
0 
0.01546810471842393 
0.01001689858578868 
0.01204066063584207 
0 
0.06174425764072498 
-0.06895131546026829 
-0.0836741137711907 
0.1720174608785417 
-0.007629649454957345 
0 
0.02250125078385987 
0 
0.02431665676254604 
0.00940987603874472 
-0.07910977719144592 
0 
0.5036491765132682 
-0.102267352126863 
-0.1370818903063019 
0.299569806855782 
-0.06464015698887504 
-0.2044889787339807 
-0.0541399723406798 
0.05649803709400709 
0 
-0.1434439857845917 
-0.2131835187660995 
0.2944739943647975 
-0.01535208055367817 
0 
0.09433644855981389 
-0.01570012268307019 
0.2350030171969312 
0 
0.00201242699991898 
0 
0 
0.004728446775481382 
0 
0.002920891243163662 
-0.03956380361008424 
-0.008461120976421054 
0.07659177008160457 
0.3042580151969033 
0 
0.00774762743770546 
0.3088263935512136 
0.007209437161106735 
-0.007441478141053963 
0 
-0.2552737816538798 
-0.008903480516644444 
0.001765121369241875 
0.1482860827788151 
-0.3002901242018904 
0.00866999708151457 
-0.06841449842574661 
0 
0.1784519713699784 
0.006437035002643247 
-0.02391062094713031 
0.007074871587254741 
0 
-0.006273996540158273 
0 
0 
0 
0.2510079590650114 
0 
0.1240352991227128 
-0.01635293082475147 
0 
0 
0.0008185461272231585 
-0.04413947732207116 
0.00491291455563199 
-0.01082493108558897 
-0.08865364988205476 
0.02868843481046568 
0 
-0.1836920381153175 
0.3497711746660017 
0 
0.07485256350828959 
0 
0.0002629911791337285 
0.006849134653215247 
0 
-0.06530533706408786 
0 
-0.003767933080627874 
0.0007465055234855239 
-0.04528170893513213 
0.2489799540710778 
0.01906453605125695 
0.006168720815288447 
0.1364554570969188 
-0.001551430114653689 
-0.05444850826444932 
-0.03194783851454746 
-0.01838792760925129 
-0.01953347103063311 
0.1020284797936162 
0.002037661563971705 
0.03580638717973322 
-0.006095497098045885 
0 
0 
0.008319054807109136 
0.2537400433082921 
0 
0.07438528537837205 
-0.009175034181619336 
-0.01284162414175965 
0.222688970349642 
0 
-0.01357285648196856 
0.2305729046687717 
0.007529409850710806 
-0.01989370395783626 
0.001213438144827638 
0.05128782965597802 
0 
0 
0.006943298057129829 
0 
0.251680682894543 
0.02507372688385749 
0 
0.03315351659687219 
0.1760754811316366 
0.01464948189893247 
0.03729223555578583 
0.05595291342459758 
0.007820717643136875 
-0.02964589000820887 
-0.001569577084820757 
-0.06743701460164404 
0 
0.0374106677373376 
0.0115433451814155 
0.0113507626634545 
0 
0 
0 
-0.04460358190911207 
0.02811873125508267 
-0.1454591269705526 
-0.06103982093289489 
-0.01904180942165001 
0 
0.02321930618129927 
0.005632374390621313 
0.1033850002733482 
0.0091811752625722 
0.006295208914388188 
0 
0 
-0.1611387765419041 
0.03169050999849173 
0 
0 
-0.006173486333079807 
0 
0.004259589634659335 
-0.03565738858471076 
-0.07486267913824673 
0.0008272304125744762 
0 
0.002232842666422528 
0 
0.01020911555740735 
-0.006403246335042371 
-0.01786378262339921 
0 
0.02767866088939264 
0.27942094885953 
0 
-0.02752317765813391 
0 
-0.1449037796394546 
-0.001768248884952817 
-0.000978754749475045 
0 
0 
-0.01683168559561204 
0 
0 
-0.003499585691230741 
0.01418781616507837 
0 
0.05719546604224941 
0.02409005016172097 
0 
0.02665744451167835 
0.007355492632302729 
0.01321920411124619 
0 
0 
0.04184183215183259 
-0.04178596603093244 
0.01723577077581442 
0.03207898795301124 
-0.055616535273947 
-0.02018258002292244 
-0.01962867542157143 
0.02415322689880682 
-0.006033465387076118 
0.03030072918279222 
-0.0009153695503696033 
-0.1653011795806369 
0 
0 
4.802424844256379e-05 
0 
0 
-0.277689529530407 
0 
0 
0 
0.009305495831285747 
0.0009747142965956875 
0.09391403634078258 
-0.03932469319548892 
0.02926594319457384 
0 
0 
0.1564950611489833 
0 
0 
0.007244003791657128 
0 
0 
0 
-0.03219684348083372 
0.06655464483069889 
0.03851898474140471 
0.06469040345040777 
-0.3117993488644888 
-0.09570946685387249 
-0.001475861017064868 
0.003972103203559293 
-0.0006698746577221627 
-0.02231400898552589 
-0.004775945296199752 
-0.01009457104797907 
0 
0 
-0.09330007284233674 
0 
0.005601165561943761 
0.01093250047515981 
0.02211522186380816 
0.2453616213210062 
0.1165334263135752 
0.01810464781457021 
0.002004459582684295 
-0.3557675367077873 
0.01993991300393519 
0.06565957684880909 
0.02036680889843831 
0.00691387750198197 
0 
0 
-0.004427334485553885 
-0.1079864017495672 
0 
0.001710491596013492 
0 
0 
0.005519916109978908 
-0.006941928501774531 
0 
0 
-0.1151636718497902 
0.07073723790532342 
0.006531681902644265 
0 
0.006321150598448374 
0.02767703219090538 
0.2180259187586232 
0.005181072879815308 
-0.2017447142590343 
0.04370590786898977 
-5.321989920697588e-05 
-0.05051955804024356 
0 
0 
0 
-0.004773944278846276 
0.03948695473629502 
0 
-0.009323527739186842 
0 
-0.01329917455836957 
-0.01605754750824999 
0 
0 
-0.09776105455030369 
-0.07175407540574549 
0 
0.1088538738687582 
0.2408064057268113 
-0.3039339129947136 
0 
-0.02740628628231881 
0 
0 
0 
0.04120761451810528 
0.04727691973034516 
-0.1873931902477917 
-0.07441797333068326 
0 
-0.01721837830258733 
0 
0.008082141277705204 
0 
0.08557935406174674 
-0.002552888759534047 
-0.0312722284242329 
0 
-0.3424516096810891 
0 
-0.01044129493707979 
0 
0 
-0.006519539428296224 
0.007451648703344407 
-0.1049039307461172 
0.01878400011782298 
-0.0004987005417566604 
-0.01387556459926386 
0 
0 
0.004663641351810896 
0.02429513024808311 
0 
0.1316728245931676 
0 
0 
0.01200340577369504 
0 
-0.1027993321815291 
-0.02217635037341948 
0.1663527322373081 
-0.04436324391131594 
0.01060423434002426 
0 
0 
-0.004348233801692083 
0 
0 
0.01993675316157167 
0.09842362866405722 
0.005036846556816035 
0 
0 
-0.1417690329506519 
-0.001850267028982859 
-0.01499688576164289 
-0.003105534765714082 
0.05612684496531171 
0.06452855067253623 
-0.007403259238383574 
0 
0 
0.005153192970965666 
-0.01533447977872902 
-0.00130722541378027 
0.007543673441315235 
0 
-0.03588505084750335 
-0.01781159216175084 
0 
-0.00854799134577057 
-0.01124427853460427 
0.02658079370207661 
0.1049923016968103 
-0.03715499904921297 
-0.02196948458451806 
-0.02077533710351605 
-0.003141363416591295 
-0.04031979210144206 
0.008741752431342436 
0.1560407650940223 
0.002145281575357637 
0.03685353242940202 
-0.05587733463088308 
0.1054469354507392 
-0.1319588770364383 
0.07848076667078711 
0 
0.01119720336100829 
0.007483723328454758 
0.2334693317058525 
0 
0 
-0.1442055138413868 
0 
0.08180793307863098 
0.009574651047929282 
-0.008275076999311718 
0.01563148948337481 
0.005884147364366723 
0 
0.02487296716332201 
-0.08572576650828961 
0 
0 
0.01338959319454055 
0 
0 
0.0640626883328107 
-0.008452298077687017 
0.007266327294388948 
-0.07164812150568012 
0 
-0.1077889854479235 
-0.03094957721321786 
-0.01169170075839381 
0.2654491669128491 
-0.008275754096755183 
0.01794327976993255 
0.001832628765706095 
0.07910262333225276 
0.05002213066581514 
-0.0002122167613221448 
0 
0.05536068030582011 
0.1284313757342372 
0.02569881760840207 
0.07352089725906154 
0 
0.03464836245332582 
0 
-0.1378702922362554 
-0.1698470194712378 
0 
0.0308590366193932 
0 
0.1762028693379011 
0.0122347387738023 
0.02366252608180601 
0.02266927485862441 
0 
-0.0101000877408614 
0 
0 
-0.02425776388879421 
0.02696943454640758 
0 
0.004270798910694799 
-0.03322098928317289 
0.01150513368464278 
0 
0.01307251308602988 
0.002777053341622997 
-0.004317566857234638 
0.02322999708632723 
0.08486616818076857 
-0.04830691748912166 
0 
0.04072052377814918 
0.04816134432139636 
0.00914202260446299 
0 
0.006333629505297625 
0.0007982584567776401 
-0.06077652128335898 
0.02714571613387663 
0 
0.004882546776138194 
-0.01131442200653824 
0.1020460907604888 
0 
0 
-0.292263035784167 
0 
-0.1603471089799713 
0 
0 
0.04470123493533638 
-0.1100806002527948 
0.005385804065931623 
0 
-0.04985884136440891 
-0.002241304920224532 
0 
0 
0.01522850137291505 
0 
0 
-0.002804979559288297 
0 
-0.01461454522135434 
0.01174820226760013 
0 
0 
0 
0 
-0.04304440972680398 
0.02712762302239557 
0 
0.003860304346489029 
-0.008137989172144993 
0 
0.02005810924396228 
0.1694991417225569 
-0.5691473465446569 
0 
0.008461212185362218 
0 
0.01010317704580054 
-0.1551923683019567 
0.01017297494448331 
-0.006325894774345338 
0.03748880689037709 
-0.1524436400721421 
0.07687326904490707 
-0.03428716554255234 
0.01180352313655967 
0.01905105084415856 
5.966364649042473e-05 
-0.05486967255144426 
0.004032739418840778 
0 
0 
-0.01664252310442031 
-0.01324135230839139 
-0.006483937454984207 
0.06778286266961979 
0.0563396524263508 
-0.002445413023282599 
0 
0 
0.005904418798661622 
0 
0 
0.004739168353260395 
0.09323012523085747 
0.01000240694905249 
0.04983057154653246 
-0.04884983615145785 
0 
-0.0004236679642074164 
-0.06048343985082387 
-0.03562809115895688 
0 
0 
0.01562947342407806 
0.008301930787800872 
-0.0253612854495785 
0 
0 
-0.005216519898160029 
-0.007190401146434322 
0 
0 
0.1139330026130776 
0.001005858440997009 
-0.1010633141383767 
-0.165612573811715 
0.04113429266935884 
-0.04301127847767569 
-0.02108419368958558 
0 
-0.05866587308310293 
0 
0 
0 
-0.03178062658984426 
0.1198211252300269 
0.007657761923631737 
0.006497640237605513 
0.006320265449062295 
0.02030696290303419 
0.01819262894801461 
-0.001803924894031199 
0.01667083196952731 
-0.00765486071711897 
0 
-0.001402180342158675 
0 
0 
0.4073855842364396 
0 
0.01168370758727584 
0.004247674442406775 
-0.02765908598532082 
0.04974231811972722 
0.08022110116405717 
0.001961280258774903 
-0.1845558060945479 
-0.2171772756953191 
0 
-0.01163688176978951 
0 
0.2262415889593205 
0.00896035411849189 
0.08530695386709145 
0 
0 
0 
-0.04964980176191045 
0 
0 
-0.02406603761749483 
-0.01922943869063411 
0 
-0.06362380202292964 
0.01266681090296773 
-0.007006222170498859 
-0.04023148931459354 
0.1208815861929094 
0 
0.2389143272145256 
0 
0.1050879556786669 
0.3209454328852243 
0 
-0.03710488969461697 
-0.06908679825950811 
0 
-0.03034651736368516 
-0.07837915423651864 
-0.08857219386204356 
-0.2370504806779629 
0 
0.06388813869903312 
-0.02067655682639426 
0 
0.05573612012725963 
0.0005953942161718881 
-0.1633453366474195 
-0.2468703903106912 
0 
0 
-0.08404530543298569 
0.06032326408138634 
-0.02378672940068007 
0.005375660512928964 
-0.01929738998905756 
0.007471335522696628 
0.002934553212713913 
0.2179786825508224 
-0.05218852662005067 
0.06400140539074163 
-0.2621948678790301 
0.04669934442500266 
0 
0.01967049969592681 
0.0003007586529835821 
0 
-0.05020575042179992 
0.2329053411730472 
-0.00636667306069284 
-0.001128057010528734 
-0.02602891539368972 
0 
0 
0 
-0.01337520519665381 
-0.1177854406371928 
-0.01950483644916603 
0.01306977094149665 
-0.01161436412390868 
-0.04388568511268358 
0 
0.0535483873960015 
0.2864379500116435 
-0.05242439270565981 
0.01638133758256543 
0.0005306464569083217 
0 
0 
0.0189336208767478 
0 
0.01439789414439566 
0.1120306055037464 
0.001892090243567929 
0 
0.004723280251939098 
0 
0.00326197096769061 
-0.01149570960223482 
0.005423824169436289 
0 
0.1248396806472657 
0.01773373415613691 
0.01079465618907695 
0.0280206386320937 
-0.2343543705403135 
0.0008003962608378165 
0 
0 
-0.1135738522549885 
0 
-0.02043903231157275 
-0.2054870821457943 
-0.02592743289243526 
0 
0 
0 
-0.04714646656665808 
-0.1978253462800058 
-0.006691743567729369 
0 
-0.004722982802026968 
0.0003376713003883362 
-0.008332191533080046 
0 
0 
0 
0.01125657066121987 
0.02127311271438805 
0.07164226847048177 
0 
0.003744763224882968 
0.005837850756524574 
-0.1670159951852735 
0.0009708877255891465 
0.02149975959589813 
0 
0.006644597374612801 
0.02236081284843304 
0 
-0.1044981437614403 
0 
0 
-0.2138799983004371 
0.01594461355308565 
0.05537446606914449 
0.005515839174641372 
0 
-0.007029756963706036 
0.05437478288931041 
0.01755343344361424 
0.006248950850189399 
0 
0.00937189563482424 
0.007967956472114396 
0.0004272927116508523 
-0.4206729093673081 
0.01776723808235154 
-0.01967508880400219 
0.0006064815281599281 
0.01905353889128798 
0.04676781569895207 
0 
-0.03411962113070138 
0 
0 
0.03316749476556181 
0 
0.06442830588310317 
0 
0 
0.07700030487175756 
-0.04580480140136035 
0 
-0.006665237087874434 
-0.007244865852824803 
-0.02027403398501053 
0 
0 
-0.01016978884679412 
-0.009416783414529332 
-0.1756119736757079 
0.05021012380711768 
0 
-0.02200275927402319 
0.01709591946320848 
0 
-0.002289951359789172 
-0.2261049337057328 
0 
0 
0 
0.02928234568735115 
-0.0742746643875031 
0 
0.01228770189785651 
0 
0 
0 
0 
0.1730497083661268 
-0.3906100714567017 
0.03792528942909731 
0.0238031991422657 
0.1816783623675006 
0.01904023178600673 
0.02517261938747418 
0 
0 
-0.3043882481306461 
0.01459612580966324 
0 
-0.06347557523911154 
-0.001537344356804668 
0 
0.03118915527871449 
-0.0149356544787494 
-0.3489608318158006 
0.03739567875566017 
0 
0.1575859904194307 
-0.03325994896496501 
0.02700300411952119 
0.005045279515390537 
0 
0.04999157344854005 
0.07425848644373981 
0.002224658627981628 
0.1522335085464344 
0 
0.0003697713092414096 
0 
0.01314500981391933 
0.009034882009179439 
0 
0 
0 
-0.001554490509051619 
0 
-0.0113126455437069 
0 
0.05744742768748957 
0 
0 
0 
-0.02346052342948194 
0 
0.06921875635068547 
-0.07208883827579214 
0.0004158723917856489 
0 
0.0006033755112589668 
0.02725647634416969 
-0.0407583133767936 
0.01027991408988079 
0 
0 
0 
0.006551159277116544 
0.02436533625603284 
-0.077149445248648 
-0.1044162506523326 
-0.002385174821098904 
-0.0001609400298291486 
-0.07783618996221883 
0.01482051735907816 
-0.09865937541460915 
0.0479974447169737 
0.1668838394560485 
0 
0 
0.005413390527870128 
0.03188995828024484 
-0.09166875383022408 
-0.005305278729927391 
0.01343911532066799 
0 
0.0128091811259848 
0.032397599140523 
0 
0.007258543345732061 
0 
0 
-0.04368250701150224 
0 
-0.07957326148843138 
0 
-0.0106788084538711 
0 
0.006436458563521536 
0 
0 
-0.3373040215881978 
0.1480669548860286 
0 
-0.003208329180483826 
-0.04535235524346962 
0.007450920211848493 
-0.03901124512227339 
-0.1524611810805073 
0.01101797500679551 
0.0455449786808414 
-0.02127717288269231 
-0.008219870226886264 
0 
0.001056246515878597 
-0.02651926186353014 
0 
0 
0.1075628041439475 
-0.001548477611257994 
-0.4019547057644947 
-0.008498103930596919 
-0.005128942888449392 
0.009462206922732894 
0.003818644729326181 
-0.3954400157713078 
0.03137974634703845 
0.007575481903342776 
0.008260618749921024 
0 
0.008107877724474463 
0.1222062037514314 
0.0007773026925077201 
-0.1825530844319156 
-0.0008921821069198565 
0 
0.04187109732550266 
0.04331358796764927 
0 
0 
0 
0.00825245704453902 
0.1388578676288876 
0 
0 
0.02824310032061382 
0.01418627132852048 
-0.1050874899136575 
-0.02186430276941602 
0.07711608793782274 
0.01727198025802888 
-0.2800635057727173 
-0.01916486296222217 
-0.0372774524846713 
-0.002749757607467397 
0.05814204659733384 
0.03365429280279394 
-0.005152450538493647 
0.006719269404414363 
-0.02461772022057178 
-0.002493882113852626 
0 
0 
0.01072867879144362 
-0.068047868440427 
0 
0 
0.001023567693079857 
-0.03923696949319466 
0.02360560113088739 
0 
0 
-0.05658059391797531 
-0.01322820875804266 
0.02076257202598879 
0 
0 
0 
0.002328942838749013 
0.005462209283549417 
0 
0 
0.08609221694057533 
0 
0 
-0.0869639725022866 
0.02789807780631581 
-0.1133712924026702 
0 
-0.3280865343969752 
-0.04234755137866622 
0 
0.0131311901684853 
0 
-0.005581341464487586 
0 
-0.09370731914940113 
0 
0.04516735010495007 
-0.03138470396789617 
0 
0.03534571449796237 
0 
-0.2453339306483718 
0.009877059750868221 
-0.09138321622362684 
-0.004307952963548804 
0.005381836134438125 
0.09201600752089953 
-0.008339005935326386 
-0.0200550104560605 
0.02516668868032704 
0.0006474475257671796 
-0.0168883798307317 
0.292035064124368 
0 
-0.01762466515187109 
0 
-0.04380072364256348 
0.02562168150323141 
0.01025332033400354 
0 
0 
-0.06719107350792115 
-0.02596330772123012 
-0.0002412446191197165 
-0.008487355393181351 
0 
-0.326209030450032 
0.005235542365927989 
0.1816190446765553 
0.01288997105503878 
0.002431232797982089 
0 
-0.01986652271220354 
0 
-0.005778501119027444 
0.02109283597271776 
0 
0.01603278912308841 
0.4623058827557351 
0.06269075966887602 
-0.05418035615016087 
-0.002076771688124326 
0.002999685369582725 
0.07186999087572002 
0.01611770313703496 
0 
0 
-0.01054619345017442 
0.06136040670689809 
0.001911412143587525 
-0.07029265106578564 
0.0977802643355775 
-0.04932353369511508 
-0.02659376166723306 
0 
0 
-0.001675529558222445 
0 
0.001600795685602954 
-0.06149744797863811 
0 
0 
0.02036455706001466 
0.015268206167066 
0.03412444439990291 
0 
0 
-0.008891444583932581 
0.006519917025453282 
-0.006362009195127627 
0 
0.00379896616135385 
0 
-0.06768359733393831 
-0.007165675783082338 
0 
0 
-0.04465251119027808 
-0.001370447238230925 
-0.01192410869546434 
0.004699360104132459 
0 
-0.2806592133959071 
0 
-0.147105290558554 
-0.04552098572663268 
0 
0.002353119502742904 
-0.01148686346377405 
0 
-0.0129919326153862 
-0.008329404524138238 
0 
0.09020948832917478 
0.0009092711224603787 
0.5018471212277598 
-0.03768132314184258 
0 
0.01421597053714265 
0.07472630702900404 
0.006240077670147294 
0 
-0.00448559793937606 
-0.02217439727804729 
0.01224169000454879 
0.01552164128541545 
-0.3441724839524949 
0.002188080603698118 
0 
0.01032485123586735 
-0.1803041173546134 
0 
0 
0.1764302850706668 
0.00970077815745795 
-0.01996114396778817 
0 
0.01420357835510771 
0 
-0.003255078625013151 
0 
0 
-0.05989235719159908 
-0.007557643107500591 
0.000576960813593168 
-0.0272861461511252 
0 
0.009935978765253655 
0 
0.0178354460074979 
0 
0.01358921075650864 
0 
0.009532934228099543 
0 
0 
0 
-0.03663512375870286 
0.01320837057011828 
0.04273326633027186 
0.008646411710727508 
0 
-0.01584385265562424 
0 
0.008901362099569472 
-0.02819792076990086 
0.0987790314804724 
-0.05196087585409588 
-0.05009011029577454 
0 
0.00264853061752322 
0 
0 
0 
0.02285095790416034 
0 
0 
0 
-0.004789427991159823 
-0.01783995354520922 
-0.006645300159937664 
-0.001154481159564102 
-0.000560846292028328 
0 
-0.0718824512555071 
0 
-0.1303816913943997 
-0.005798646184527188 
0.0006973474517351349 
0.2285661662454251 
-0.1756536099373006 
-0.01261491573070977 
0.04228500904983835 
0 
0.01681549297611159 
0 
0.01571679927320391 
0.008659964308954771 
0 
0.09875003266465522 
0.005057810885622339 
-0.04920767901326034 
-0.05053655707917893 
0.02232759643496647 
0 
0 
0 
0 
0 
0 
0 
0.0140074833417093 
-0.02280531315680295 
0.02405943345810745 
-0.033183161760392 
0.03818719752934085 
0.0624115121289528 
0 
0 
0 
0.01975225507900292 
-0.001921899939486165 
0.02625001346923519 
-0.003401427024203563 
0.1111552515887664 
0.0001364828891494895 
0 
0.02051629118711888 
0 
0.004907005703637079 
0 
-0.04712755008962939 
-0.1114534585938943 
0 
0.1793790604735064 
0 
-0.02228374220692937 
-0.006321414067867939 
-0.2379588028493423 
0.1053367028036319 
0.3134266313694987 
0 
0 
-0.0306605316252017 
-0.05721369888070205 
0.1176516746064022 
-0.008160084297678104 
-0.3920850384704218 
-0.01261809214111049 
-0.05634545932393774 
0 
0.01686744841657489 
0 
0.02536264140328227 
0 
-0.2681915579207459 
0 
-0.07813128305460343 
0 
-0.07510728139506875 
0 
-0.003689720474071313 
0.09077646325957259 
-0.07193514412677625 
0 
0 
-0.01697314179005198 
0 
0.05329474721394169 
-0.005377839325503493 
0 
0 
0 
-0.2618734915663724 
-0.006061370048197416 
-0.2810549525786611 
0 
0 
-0.04308044859470217 
0.06939519929477894 
0.05746034282211163 
0.007810401303045233 
0 
-0.006407228361334071 
0 
0 
-0.2953785291959128 
0.005380499770347897 
-0.001906184636606579 
0 
0.002034293419674649 
0 
0.06250447460235695 
0.006545413306543828 
0 
0.1187171199590243 
-0.09089135861220637 
0.01078411166469875 
0.007762781587815664 
0.005006039405642764 
0 
0.1149632230153112 
0 
0 
0 
0 
0 
0.02419681504700287 
-0.1351255129363231 
-0.007485696664437289 
0 
0 
0 
-0.1043248807271576 
0.02237198392454264 
-0.03490912677996607 
0.03637772584499391 
0.005231169045134888 
0.001177736275400163 
0.07069822700076223 
0 
0 
-0.0144885983706746 
0 
0.03958480004214848 
0 
-0.004644410366884547 
0.02427329451091464 
0 
0.006733831338681631 
0.03328529713644258 
0 
0 
0.04915559128816058 
0 
0 
0.03524084157767233 
-0.01441235926717698 
0 
0 
-0.0317423537423671 
0.04885440602132089 
-0.1601939267371448 
-0.02429616980653922 
0 
0 
0.007710531701295138 
-0.07394862025057915 
0.001333149742249652 
0 
0 
-0.04704123326051449 
-0.005687322980718953 
0.03140706746717301 
0 
0 
0.1882803521627483 
-0.00175138296918702 
0 
-0.01352772133644053 
0 
0.007707898753332987 
0 
-0.3042845247282442 
0 
0.05218250718749983 
-0.00605318385368403 
0.01934646995885629 
-0.02002243541331719 
0.04032882077730988 
-0.01144174438643105 
0 
0.2869941533795997 
0 
0 
0 
-0.0512893020018514 
0 
0 
0 
0 
0.004308973718820897 
0 
0.08706794743445548 
0 
0.005818645740899514 
0 
0.05993695674878578 
-0.09990380023398933 
0 
0.03677775773195649 
0 
0.06689369977670705 
0 
0 
0 
0 
-0.1991641193404971 
-0.106177180491409 
0.0006191095335710527 
-0.01882723867336854 
0.02755236706206154 
-0.05007123157589836 
0.01112585044530832 
0 
0.005845966261939796 
0 
-0.01924285955224379 
0 
0.02927138702897021 
0 
0.003114717166667231 
0.2613322637860467 
0 
0.01350839237477058 
-0.2092878239019997 
0.05077819549435297 
0.02694932345175506 
-0.007007613141372316 
0.01654351702315638 
-0.3809367251224607 
-0.00320111470944731 
0.003402920245035324 
0.03367377481313677 
-0.003472787203433491 
0.02018826716888839 
-0.1336907586680067 
0 
0.0006703400700302836 
-0.003640811213885785 
0.1098570169315049 
0 
0 
0.01582447679554753 
-0.04034128770614777 
0.6788093457465119 
0 
0 
-0.09056440315206957 
0.04097976794038369 
-0.03275818445812353 
-0.1603208392290155 
0 
0.07731714077007845 
0 
-0.002114989682526027 
0.01577722923261476 
0.01558638161740677 
-0.01420786111058236 
0 
0.02032015250334335 
-0.06202477440094349 
0.1011592107795985 
0 
0 
0 
-0.05557052745868041 
0 
0 
0 
0.03683341487690162 
0.001042682791264058 
-0.01029308891984587 
0.005888666191710157 
0 
0 
0.2395705509388394 
0 
0.01211990494077132 
-0.02043770925340978 
0 
0.0003439280420145963 
0 
0 
-0.09317903099450556 
0.0249818553841141 
0.02120174442053389 
0 
0.02499653285776695 
0 
0.2212018291293674 
0 
0 
-0.03283864606632753 
0.004813617005195343 
0.1149865316709149 
0 
0.01670114102344761 
-0.01612902711028457 
0.2865104245802692 
0 
0 
0 
0 
0.02355210181262452 
0.01634442601639122 
0.2179509190188275 
0 
-0.02173498386656424 
0 
0 
0.03806644288392219 
0 
-0.07428341118130194 
0 
-0.09785286790906614 
0 
-0.06469070611487468 
0 
0.003849179310613297 
0 
0.006366736886192124 
0 
-0.07113195008669825 
0 
0.187122016685644 
0.0009918116957901935 
0 
0 
0 
0 
0.002597952667839081 
0 
0.06637377703939541 
0.0004713440172926606 
0 
-0.02065752083043286 
0.005037002967453994 
0 
-0.08033340429688905 
0 
-0.003394792046246755 
-0.0983449465939534 
0.02876142147406182 
-0.01030423310100159 
0 
0.1287338808344587 
-0.0100046462138635 
-0.007657606741294972 
-0.2270397813378902 
0 
0 
0.398104794695557 
-0.1603576058759552 
-0.3137521174225852 
-0.120164519429951 
0 
0 
-0.1310436382207165 
0.006752426577402664 
-0.09609395857146455 
0.00330544211535132 
0.02189277063502442 
0.007945808702991296 
0.006245135336875023 
0 
0.02600981991906655 
-0.05199971313954702 
0.04655005981390158 
0 
0 
0 
0.009170537771651516 
0.01843333813234566 
0 
-0.3288528740589306 
0 
-0.0178147837920053 
-0.5337054729829261 
0 
0 
0 
0.02281072084295314 
0.002897120995438943 
0.01128258636149558 
-0.3732690173506986 
-0.01054410018478266 
0.6726773403364256 
-0.02001007477215893 
-0.1043920491269161 
0 
0 
0.0504012545262025 
0 
0.0002855114510760527 
0 
0 
-0.07429999471775442 
0.04128767117021323 
0.08210950916486352 
-0.2295796048485574 
0 
0 
0 
0.003161595826730873 
0 
0 
0.02992260200428767 
-0.02202067781182215 
0 
-0.0613800558987679 
-0.01321740077966702 
0 
0 
0.0008042746772386261 
0 
0.2914770809839166 
0 
0.006662975803280614 
0 
0.0923931386686257 
0.007704061758581933 
-0.001342490257205297 
0.04297659992130733 
-0.009011506154814265 
0.0596822975524983 
-0.003512566712393759 
-0.03697985172434205 
0.05229623489995746 
0 
-0.3107319327624131 
0.01810656025388406 
0 
-0.05624374114920941 
0.007803063016912678 
0.02296703822306057 
-0.00262805634435859 
0.01654439587454759 
0.01568665225661839 
-0.01181488539230566 
0.06633777057171167 
0.01341073458636787 
0.008121543355651356 
0.6247399992883848 
-0.007170422602141284 
-0.156139871613068 
0 
0.01638560474941208 
-0.02528158010999463 
-0.01417025266332219 
0 
-0.07049632234894865 
0.002171266467234456 
0 
-0.00747746960335525 
0 
-0.03346629927902094 
0.006337093670845854 
0 
-0.003132990047509566 
0 
0 
0.09119881680295663 
-0.00240750261447678 
-0.009433248172368101 
0 
-0.02631426043983286 
-0.006143268004580269 
0.00210640194317605 
-0.002558108956031864 
0 
0 
-0.04683135174929559 
-0.2046348383460644 
0 
0.009594146005687894 
0.05350198667429422 
-0.001356960059388337 
-0.001330950127745596 
0 
-0.0579556389116655 
0.03252862814868263 
-0.002264334556201147 
0 
0 
0.07301072711421648 
0.02934116111750808 
0.01609436285709546 
0.02076324987824653 
0.008390927546687348 
0 
0 
0.1478132208159752 
0 
-0.05387323143717188 
0.05527702553568871 
0.04932601396486742 
-0.04876193228998234 
0.006451048120653946 
-0.05466447817577369 
0 
-0.08263205229942391 
0.0778910175743226 
0 
0.1575057082443142 
0.009313881900288395 
-0.01751460518413902 
0.00102720896590397 
0.01845785956175868 
0 
0 
0 
-0.1859967625008215 
0.03906160714556321 
0.02947497971423511 
0 
0.01654055420312196 
0.002316523450976908 
0.001505025901073097 
0.1324584470422636 
0.01289870731673412 
-0.02568959259866731 
-0.04443807467647616 
-0.006402281241242495 
0.003247826699636839 
-0.1101477751948328 
-0.002324248429643806 
-0.03110513688749925 
-0.008620250479629329 
0 
0 
0 
-0.06351516966912224 
0 
0.02381056509948562 
0 
0.01433500894649969 
-0.06465465137020888 
0.005238118762516244 
0.253331262971324 
0.1703191440290034 
0.008245441613437703 
-0.005533367783550429 
-0.04846950353214688 
0.002585128690561149 
-0.003015369908952054 
-0.006144863199085868 
-0.09130152181428794 
0.03058379974674833 
0 
0 
0.00723041657901683 
-0.06938642223415487 
0 
0.02565619334282531 
0 
-0.006640184939169564 
0.02517715696853037 
0.02337805904685433 
0 
0.002000323638730174 
-0.02818627451355185 
-0.1141302256575225 
0 
0 
0 
0.1231326685945495 
0.009867482617763358 
-0.001627524436140203 
0.01118322857261616 
0.01811591081509143 
0.00760677361087022 
0.0572296604063275 
0.003889512513986304 
0 
0.007169008452645782 
0 
0.02248189403570839 
0.002053223725512939 
-0.003738555079393629 
0.06451638698190118 
-0.07256016977653446 
0.02618237284363287 
-0.01342833463302503 
-0.005622583194135879 
0 
-0.01409727450286057 
0.004214984372769327 
0 
-0.006198727840261046 
0.02511450920934192 
-0.01183869149256208 
0 
0.01001746726021001 
0.06847536446711652 
0.005339048903824263 
0.00443777263217879 
-0.07375329327128508 
0.0053919687857852 
-0.1411526118872303 
0 
-0.2723087882611676 
0.04898042742402956 
0 
0 
0.01656263712344501 
-0.003842958467104939 
-0.00681255270672882 
0 
0.005505941582937986 
-0.012180158373951 
0.1980684884771544 
-0.0255424770874787 
0 
0.008800593222308988 
0.07243724785239487 
-0.03044327099174795 
0 
0 
-0.0157540470307841 
-0.00122412672962867 
0.001229505163140891 
0 
0.01638556363456858 
0 
0.01342372831735397 
0.007406495688929245 
0.141779920065035 
0 
0 
0.1017572420927184 
0 
0 
0.2129803628324587 
0 
0 
0.008456522810819886 
0 
-0.01969882540538987 
0 
0.01204949962059405 
0.02805310201871546 
-0.007499652149239916 
0.103820292735353 
0.01440535537486453 
-0.08913585968011052 
0 
0.0482436714656134 
-0.07768759574008526 
0 
0.3671523865167384 
0.008919377796151033 
0.005189057622290271 
0 
0.03878707643602415 
-0.01295033314089103 
0 
0.01916678429807506 
0 
0 
0.01234722794092422 
-0.006417765443298491 
-0.05855122161021037 
0 
0.03043557018789562 
0 
0 
-0.00798119027913472 
-0.1851751807405537 
0.02522730639213639 
0.007553724398096225 
0 
-0.01238681628554898 
0.003058843754804138 
0.01992590061695583 
-0.001523472743008281 
0 
0 
0.02571665993269218 
0.01658045225292761 
0.05830324758001194 
0.02942265024342512 
0.002905178341860476 
0.001945036356183148 
0.005232053459745385 
0.01008034996478014 
0 
0 
0.008810685689447317 
0 
0.0011949426356288 
0.00625808376330869 
-0.02707117128363752 
-0.05497186213129198 
0 
0 
0.05288522217947316 
-0.006762770667839399 
0 
0 
0 
0.03268390078680274 
0 
0 
0 
0.009194389020832614 
0.001033337131114781 
0 
0 
0 
-0.05961836521701422 
0 
0 
0 
0 
0 
0 
0.0007996065665026334 
0.0427435377673188 
0.0209478394858237 
0.01110687372766693 
-0.02984082593323221 
-0.01690005442459862 
-0.01862760422222572 
-0.02724345832910841 
0.002283633104594905 
0 
0.006091450724696633 
-0.2112941986392224 
-0.009082850597189867 
0 
-0.01837679044100815 
0.007923919636104781 
0 
0.2151160530451579 
-0.04348600931049778 
-0.014534842006734 
-0.01569993815133036 
-0.2006879782157893 
0.01729166118702168 
0.007743593081573919 
-7.180743503547958e-05 
0.00739095718808613 
0.01132754974736217 
-0.1346661889582864 
0 
0 
0 
0.01120273137319575 
0 
-0.1378784413388547 
0.08821839824612233 
0 
0.03151902204849501 
0.002569797678708098 
0.03717422994574041 
0.006849231984857044 
0.1309775407879449 
-0.01271555030512457 
0.01045500863180393 
0 
0 
-0.07064708033271949 
0.05018409316850476 
0 
0.007370511532746276 
-0.002154897567290173 
0 
0.012932620204259 
0 
0 
0 
0 
0 
0 
0.04254178490757226 
0.034714239457256 
-0.005492896835769923 
0 
0 
-0.05242389563263494 
0 
0 
-0.0507271336150999 
0.1181773215068855 
0.002260459610674072 
0.01656744519711741 
0 
0 
-0.1163181200973048 
0 
0.06412173239960192 
-0.2681730785718873 
-0.03106928208841893 
0.03685559779774208 
0 
-0.002439777216465532 
-0.007951320865895733 
-0.006581439353168766 
-0.06330597805904525 
-0.05928621050361223 
0.009076851049211604 
-0.1332958605302458 
-0.08440065578613079 
0 
0.01605598607099005 
-0.02519580722914431 
-0.07397468497634789 
0.05751777695713556 
0.00127108466474906 
0.01133505577807484 
0 
0 
-0.005228204823387181 
0.4080276093124219 
0.07966859605087986 
0 
0.006716096503845271 
0.07878125180716888 
0 
-0.2840875785645909 
0 
-0.067518263806889 
0 
-0.004229219877404273 
0.01662729718794552 
0.01630342423837605 
0 
0.01269693913551372 
0.03893445562995494 
0 
0 
0.08729995478278985 
0 
-0.01980445356868791 
0.003775825756261135 
0.1763444696778786 
0.04896563744145615 
0.1236358932721718 
0.00436503413164318 
0.02184099685058785 
-0.007417009463682156 
-0.003203319756284859 
0.1552982066050812 
0 
-0.0006524517808848134 
0 
-0.4306949582968745 
0 
-0.002529560875766166 
0 
0.03907189806597828 
0 
0 
0.05703958429859831 
0 
0 
-0.01071182409210811 
0 
-0.02258032927150991 
-0.1172128702389327 
0.06881291567922306 
0 
0 
-0.312248432106622 
0 
0.05725821349966324 
0 
0 
0 
-0.003995731746304576 
0.001525277128032 
0.02917864961747214 
0 
-0.01522150343317937 
0 
0 
0 
0 
0.01345842988998465 
0.008560124990039233 
0 
-0.02673865134622318 
0.03027502470047694 
0 
-0.0001486423182748524 
0.01032722813185025 
-0.01752840579413348 
0 
0.2160281826951584 
0 
0 
-0.003983937631756151 
-0.007471456088411597 
0 
-0.07624073096128103 
0.009858677932677236 
0 
-0.309574624058574 
0 
0.01468615262872228 
0.002405093627265741 
0 
0.002709766117351358 
-0.05911251118972563 
0.002407539943224221 
-0.02335334845595935 
0.03609858179173876 
0 
-0.01152803074242518 
-0.06060140193346433 
-0.03040262432049646 
0 
-0.03530131300697771 
0 
0.02325129207152422 
0.003990479776624526 
0.00600573802725269 
0.003822032856444653 
-0.001602346968756804 
-0.008705588758866793 
0.01248718248931669 
-0.3547622747558137 
0 
0.007671326444898623 
-0.004885184808034159 
-0.332324049392742 
-0.01445418999313328 
0 
0.04724672685840897 
-0.136512278938825 
0 
0 
0 
0 
0.1390521785336611 
0 
-0.004058734286980711 
0 
-0.005539516334776283 
0.01486890267562028 
0.0277786827245548 
0 
0 
-0.004809077753857523 
0 
0.03517341718271918 
0.008559918255304243 
-0.0004175187677686452 
0.007495978256958384 
0 
-0.05247814807653084 
0.03760223202226894 
0.02142140548487165 
0 
0 
-0.4445561279617648 
-0.0001277548150280928 
-0.02774639083259368 
0 
0 
-0.004802875404518511 
0.006067802896492306 
0 
-0.01433155916711146 
0 
0 
0.0262898616242772 
0 
0 
-0.009805758554145234 
0.006964360845177108 
0 
-0.01249756815581178 
0.0006877328908976991 
0 
0 
0 
0 
0.003334580682525408 
0 
-0.01134392098726935 
0.05335986973379529 
0.01745708018541372 
0 
0 
-0.008613528634493505 
-0.06490206428417494 
0.03659743161649239 
0 
0 
0.03625228351238132 
0 
0.02587639050465861 
-0.008595857940967811 
0 
-0.09764586535005512 
-0.01436512096372107 
-0.1438868684050131 
0.01875708422084338 
0.02437995423251097 
0.00287250081207649 
-0.05734423634252431 
0 
0 
-0.01950167744954264 
0.005867149038210933 
0 
0 
0 
0 
0 
0 
0.004835649152939871 
0 
-0.09127162981040285 
0.01621238904870971 
0 
0 
-0.09625153542881541 
0 
0 
0 
-0.2334574996194166 
0 
0 
0 
0.01836662761918201 
-0.3311636517542849 
-0.03032856443574114 
0 
-0.005557482239511111 
0 
0 
0 
0.01615637208178936 
0.04271801715770679 
0 
0 
0.1261359762305852 
0 
0 
0.06778169572620231 
-0.02179558329288787 
0.3076171702542461 
0 
-0.03162930299106251 
0 
0.000761538612782834 
-0.0135375693691133 
0.01304708356932129 
-0.006111326530056417 
-0.124640487292618 
0.006677544919794413 
0.009639355339697134 
0 
0 
0 
0 
0.03889541440545428 
-0.01334891004396147 
0.00831715179883156 
-0.4093061229443401 
0 
0 
-0.079009168845835 
0 
-0.006549292896073859 
0.04703245931722584 
0.06882197822897745 
-0.003430177194095706 
0 
0 
-0.006054046243870778 
-0.2371400755291417 
0.005452509507522918 
0 
0 
0 
0.009280934969145659 
-0.003629470315246637 
0 
0.08537977153620332 
-0.01005539671520696 
0 
0.00671112131432943 
0 
0.0028843182234036 
-0.1258326557151872 
-0.1698361554029387 
0 
0.1330323255157985 
-0.05369216522112881 
-0.0001998007051011069 
0.00856630313779716 
0 
-0.04615865029024065 
0.04042234556621989 
0.01591222617784129 
0.006622567411741574 
0.2206165980565748 
0 
-0.237149447935136 
0 
0 
0 
0 
0 
0 
0.0257306793947307 
0.000844464967306681 
0 
-0.04006111089307195 
0 
0 
0 
-0.4460498314949832 
0 
0.00552700150182162 
0 
0 
-0.01261272491118798 
0 
0.04353095083286365 
0 
0 
0.002444599206034102 
0.0442330688461714 
-0.05892122627525176 
-0.004879327919429719 
-0.4207290598593991 
-0.08449678764500278 
0 
0 
-0.03715364331488245 
-0.2039401653117082 
-0.003118052115839084 
0 
0.01635174037525718 
0.008352400724773626 
-0.01182429232178601 
0.01823254526541065 
0.2477197856253617 
0.1864590384712078 
0.006947188229455316 
0 
0.1004357875338041 
0 
0 
0.002475858476753734 
0 
0 
0 
0.003791637352732579 
0.006883638433830049 
0.01329305675497858 
0 
-0.01085456415647963 
0.01958774655285252 
0.0174245492220312 
0 
-0.01111077725598394 
0 
0 
0.01847460184009085 
0 
0 
0.09096950252866128 
0.06627866429508801 
0.01933986593514588 
0.09444784476185795 
0 
-0.0938287477307148 
0.03569853179776386 
-0.1369511430565942 
0.004578482922182169 
-0.0008344969870563353 
0 
0 
0.0004022840566427814 
0.01787731024221885 
-0.01038602648657425 
-0.02153499667494368 
0 
0 
-0.05502293054124698 
0 
0.001493119423195467 
0 
0 
0 
0 
-0.02696443859858577 
0 
-0.02814711339045183 
0.009469820173704711 
0 
0.04306149402646596 
0.0003013658978149063 
-0.04183004409364809 
0.01009887408891822 
0 
-0.05788801109365669 
-0.002016176953824106 
0.01066934899341097 
0.007362862262964493 
0.006949525608622917 
0 
0 
0 
0.0003181395263526344 
0 
0.001580164941632247 
0 
-0.026621231693546 
-0.1469973533810846 
-0.005200830410693271 
0.01716178773676731 
-0.2316345061270623 
-0.03288246967242643 
0 
0.004135253643617908 
0 
0.002971734410747207 
-0.01835156525369235 
0 
0.009381071397234188 
0.006517738289029937 
0.007534425289741251 
0 
0 
0 
0 
0.0002838493684608538 
0.01343728749502926 
0.01466912158334502 
0 
-0.005898361304146669 
0 
0 
-0.04417443450715971 
0 
-0.1061985125146731 
0 
-0.005781053970067932 
0.01343712577667437 
0.01646893262139408 
0.01079208009756918 
0.00109018305908534 
-0.03726778815152027 
0 
0 
0.03791711006729857 
0.01105562618481259 
0.03060639879699904 
0.002532299478461644 
0 
-0.01743737601409234 
-0.0001632690897737942 
0.04640112318526683 
-0.01045379020642213 
0.01248102326956355 
0 
0.04156044334263494 
0.1215325865867665 
-0.2090344819491587 
0 
0 
-0.03599913080567299 
0.005243528956943683 
0.001507395641014985 
0 
0 
0.0007378508920315415 
0 
0.003301820675859286 
0 
-0.005581501858568895 
0.2347132317854037 
-0.01003700868351872 
-0.01154094248642074 
-0.01371868649736589 
0 
0 
0 
-0.008309960750057898 
0.02229467323821192 
0.00657493299968228 
0 
0 
0.008609349750064371 
-0.01431132625984142 
-0.002901660307527875 
0.1098132532359898 
0 
0.01824872745490127 
-0.1330397710161224 
0 
0.004448727433927307 
0.0160372311078817 
0.1480149091027515 
0 
0.1069231407957396 
0 
0.003211162147561791 
0 
0 
0 
0 
0.002415997629785463 
-0.2326888700289116 
0.003520967894195794 
-0.01195168913684161 
0.0006285874749030196 
-0.01534551681723886 
0.007895184384764831 
-0.1595615667522038 
0 
-0.006406228511805966 
0 
0 
0 
-0.04905037250627947 
0 
-0.02672493397775974 
0.1136373513844337 
0 
-0.003882874919963697 
0 
0 
0 
0 
0 
0 
0.007284539710313422 
0.008554071266638579 
0 
0.02827029726123127 
0.05728745741327275 
0 
0.008859179313819096 
0.02288280531543424 
0 
0 
0 
0 
-0.08779878433199924 
0.01222898775556786 
0 
0 
0.009370879098522897 
0.01713392645262974 
0.02615433544141871 
0 
0 
0 
0.008127360095545245 
0 
-0.006772277886376933 
-0.06078447427741973 
0.1843230921986207 
0 
0 
0.01886980937531882 
0 
-0.0590323293080674 
0 
0 
0 
0 
0.03125208433156841 
0 
-0.2232928542121256 
0 
0 
0.201188731283906 
0.001369476845127069 
0 
0 
0 
0 
-0.02128432142711984 
-0.005757454182520136 
-0.008064910629789604 
-0.06167579251331552 
0.009627568805342115 
0 
0 
-0.4342360631213794 
0.1261101614879356 
0.01118630247558266 
-0.1006634457748466 
0 
0.007833406223467815 
0.01337054335308594 
0 
0 
-0.003260628691672475 
-0.006672251007700491 
-0.03991124657908836 
0 
-0.0101746830681227 
-0.03963464137573489 
0.00594433875943609 
-0.2127248618033744 
0 
0.001187586193656703 
0 
0 
0 
0 
0.04754184955267977 
0.005768312496629477 
0.1681243982813179 
0 
0 
-0.004050685107606916 
0 
0.02521217227113738 
0.02300590771982054 
-0.07808454241130741 
-0.00216106086232305 
0 
-0.01890581263504064 
0.04392930341458612 
0 
0.02403802711129662 
-0.04830925584719083 
0.01924102641366519 
-0.01039898412631693 
0 
0 
0 
0 
0 
0 
0 
0 
0.03798779113312548 
-0.009907799694995695 
0.02595484411216887 
0.0134613209411847 
-0.02807777329675217 
-0.465022153125743 
0 
0.04122332757518356 
-0.02353409348394331 
0.051124152439478 
-0.0565518639549855 
0 
-0.163950675512976 
0 
0.07962712140341523 
0 
0 
-0.02650681701872112 
0 
-0.02067030299205502 
0.1083838475964476 
0 
0 
0.01053195330532351 
0 
-0.08953225432291993 
0.01576830467791054 
0 
0 
-0.004609558533287166 
0.006209607347267761 
0 
0 
-0.06839360793020337 
-0.01546526306716882 
0.002284928852355051 
0.02761014977165189 
0 
-0.0008951152352939698 
0.003815229523127869 
0 
-0.08219205569456449 
0 
0 
-0.05380710250629292 
-0.006818241696359658 
0.01441157818648434 
0.006609321598796214 
-0.3846829084282708 
0 
0 
0.1053862124384222 
0 
-0.005867137525825876 
0.117340177638055 
0.005938061160466994 
0 
0.2805145452612079 
-0.0497783355577905 
0.005366973404264656 
-0.00258539494316024 
0.01818610316222501 
0.02595670341751007 
0.02561424638642893 
-0.3336992253637548 
0 
-0.01524630945067102 
-0.09113454029734019 
0.00181932664713264 
0 
-0.06314776098054271 
-0.03905644742259332 
0 
0 
0.0007892416515062088 
0 
0 
0 
0.02156636512662771 
0 
-0.004973351518632486 
0 
-0.2624147922866218 
0 
0 
0.006332817751338215 
0.01609865834468366 
0.03971941101245046 
0.04495803081369928 
0.01028503656876311 
0.008412292669604061 
0 
0 
-0.01252764347330347 
0 
0.007250038697948449 
-0.004510012739521992 
0.001016511016922259 
0 
-0.008837179421742059 
0 
0 
0.1923264291949092 
0.02837355630480442 
0 
0.01948962101918696 
0 
0.006093678219745593 
0.004336517797885143 
0.009632995995230957 
0 
-0.01412070521387473 
-0.08066723252996552 
0 
0 
0 
0 
0 
0.002536234558340189 
0.02329109936368345 
0 
-0.06652178449951957 
-0.2365715463919598 
0 
0 
0 
0.02514622464046511 
0.006669643681886737 
-0.01860101088172131 
0.5837236772344541 
0 
-0.009456765202126774 
-0.248873776051322 
-0.01101671813358764 
0.02981004240980971 
0.000873440818438241 
0 
0 
0.3876345673391936 
0 
-0.009863950732638989 
-0.005096983791266213 
0.008068330535539923 
0.04335609252070382 
0.0222928188522296 
-0.06617338556820412 
0.06440104946855363 
0 
0.03885973943233241 
0.007197880377340211 
0.08261995974345469 
-0.003895988927915445 
0.007432054578341263 
0 
0.0004801992656548476 
-0.02131772461315163 
0.009457335847409079 
0 
0.0166007590972744 
0 
-0.04005036331375705 
0 
0 
0 
0 
0 
0.0515999766273463 
-0.05791637541306485 
0.01033397941406386 
-0.09259447108364111 
0.02967125946964684 
0 
0 
0.09483108271419685 
-0.05150613992677623 
0.003565336092265231 
-0.01277918199599696 
0 
0 
0 
0 
0.1091194861341382 
0 
-0.0016988188455219 
0.003094984026908978 
0 
-0.0004380104123851989 
-0.01694101139225455 
-0.03382322025699837 
0.000479135804745215 
0 
0.05189023132080606 
0 
-0.1918436297069578 
0 
0.02420082351011539 
0.2353594009328184 
0.005233008165537209 
0 
0.00710860365208226 
0 
0 
-0.004246912951543716 
0 
0.01598220313383598 
-0.02128140641138352 
0 
0 
0.01020937194978621 
0 
0.01774442234116543 
0.006205992840999327 
0.007323596619539225 
0 
-0.2794928655525104 
0 
0.07200825054804411 
-0.1368660000152541 
0 
0 
0 
0.007249850360144007 
0 
0.01064560596590145 
-0.007546349112839726 
0 
0 
0 
-0.03878617393447273 
-0.191125985667102 
-0.05740832021902348 
0 
0 
-0.00316106297294027 
0 
0 
0 
0.008279427974896522 
0 
0.02635384194612136 
0 
0 
0 
0 
0.166316032486421 
0 
0 
0.03845151566149772 
0 
-0.0812268099830927 
0.02498262935722426 
0 
0.004308748575815473 
0.02668505835188985 
0 
0 
-0.07749686132122099 
0 
0 
0 
0.00766158465960614 
0 
0 
0 
0 
0.02131861702960602 
0.01006341155305535 
0.0624621038624764 
0.1054522737614915 
-0.02839463506961064 
0.003035759736723774 
0 
0 
0 
0 
0 
0 
0.008053103915272319 
0 
-0.1955288211210654 
0 
0 
0 
0.02748661753990909 
-0.01110201045866498 
0 
0 
0.01063493010510537 
0.3383562196192877 
0.03172801545137906 
0 
0 
-0.007300986735201596 
0.009882242260878698 
0 
0 
0 
0.01293032375809444 
0.04807115256953459 
0 
0 
0 
0 
0.0004300229994227896 
-0.03284756511060639 
0.03419083305662514 
0 
0.008693774203581594 
0.01628420585208263 
0 
0 
0 
0 
-0.00878516380698436 
0.04398223362787955 
-0.4043278323937239 
-0.1227103649014792 
-0.0527758593810287 
-0.01438495164002424 
0 
-0.1645083922344277 
0 
0.02988703577081881 
-0.003645800615294782 
0 
0 
0.03407494712761881 
0.007774390154197272 
0.001840462661880839 
0.01202771254100197 
0.009437090751553415 
0 
0.04748938984755622 
0 
0 
0.004609500465655596 
0 
0 
0 
-0.06837779038933349 
0 
0 
-0.004178532695243773 
-0.005433761413945456 
0.01861094486306378 
0 
0 
-0.1854432667270962 
0.04216932170052155 
0 
-0.09873830439998503 
0 
-0.03709879069043737 
0 
0.1246704511572189 
-0.005062465651010918 
0 
0 
0 
0 
0 
0.0002937831699037496 
0 
-0.03317786551377319 
-0.005208473800764356 
0 
-0.01487721887302212 
0 
0 
0.01486668480056021 
0 
0 
0.01673868918187344 
0 
0 
0.05223835298697684 
-0.005503155199961982 
0.01454971071406918 
0.0002943058781232678 
-0.05659241375355256 
0.02253460114387686 
0 
0 
-0.01255153901540644 
-0.3838901901357367 
0 
0 
0 
0 
0 
-0.00825853641996935 
0 
0.009575855961660808 
0 
0.004846114949436673 
-0.01763948697315181 
0.2630029318724029 
-0.006805288480358697 
0 
0.05624235252683932 
0 
-0.05500789895646732 
0 
0.0110757188322399 
0 
0 
0.008901833936891935 
0.01037967859623512 
-0.09793211431023127 
0 
0 
-0.0829282813399564 
0 
-0.1515967810703296 
0 
0.03774154017750904 
0 
0 
0.06043317523282977 
0.1570145108149773 
0.02262612515302889 
0 
0.09498846002079538 
0.03767070667589334 
0.01349436067815258 
0 
-0.03083132143677631 
0.01276652390113941 
0 
0 
0.03264817420712209 
0.02559416833785514 
-0.08669686810213248 
-0.01596721990060655 
0 
0 
-0.002174695543012696 
-0.009097332152788497 
0 
0 
0.1774698191016609 
0 
0.01478714140892341 
0.0004297255545203259 
0 
-0.259539987732197 
0.0157877783976482 
0 
0.1513674903800635 
0 
-0.06961875291566101 
0 
0 
-0.02774985280500259 
0 
-0.002363418608284536 
-0.0813708373730456 
-0.05436256091072973 
0 
0.004396286346451618 
-0.01092426284696807 
-0.0002006306864372052 
0 
0 
0 
-0.02204702157938989 
-0.006731943803247422 
0 
0 
0.02125143462685255 
0 
0.006273087888960339 
-0.01208774640470613 
-0.2123078352338475 
0 
-0.003431458454424927 
0 
-0.05169053312237938 
0 
0 
0 
0.06314448134987677 
0 
0.04091183889832455 
0 
0 
0.02720363601513294 
0.1317291930780015 
0 
0.02312175699459473 
-0.003990323869323398 
0.05180785689132349 
0.01979852877462706 
0.003057916210499004 
0 
0.08034620463498612 
0 
0.02322117313204313 
0 
0 
-0.02844856817183284 
0.007538463959718732 
0.04078261738012191 
0 
0 
0.005946698688073283 
0 
0.009926837399844648 
-0.05976717592676604 
0.003773373520299466 
0 
0 
-0.01482457618505861 
0 
0 
0.02677912988690442 
0.1135711334020504 
0.04473261361371874 
0 
-0.02445043633340469 
0 
0 
0.03606153988374354 
-0.01365314879692038 
-0.03284057555312611 
-0.2155469220976727 
0.05052908046177811 
0.02147714207942198 
-0.01458440094746679 
0.01217653051208196 
0 
-0.1885062691041393 
0.12718640489666 
0.008310331345888954 
0 
-0.007886075328021422 
-0.003979582435811316 
0 
0 
-0.01120490632361124 
0 
0 
0.05391158330733942 
0 
0 
0 
0.199839028976709 
0.01377731689134432 
0 
0 
0.005452925307191407 
-0.1097213282250012 
0 
0 
0 
-0.007262127890444879 
0 
0 
0.04187497024078492 
0.01542547061224801 
0 
0.02995177848649447 
0 
0 
-0.03444490928298948 
0 
0 
0 
0 
-0.003642142552444335 
0.001064767784470761 
0 
0.002236675898889748 
0 
-0.02825329730924608 
0 
0.004503155307304108 
0 
-0.08709547816593949 
0 
0.02613769875631272 
0 
0.08255541402111709 
0.04663553765922394 
0.01816382074243146 
0 
0.006763989069564674 
0 
0.04990582270781865 
0 
0.00382890836494817 
0 
0.003534468055475658 
-0.02689840131469205 
0.1192355980502346 
-0.0004530241521994994 
0 
0.007317457187115347 
